const float weights[] = {-0.08104402, 0.081219755, -0.02971569, 0.04533776, 0.044638522, 0.025240764, -0.056407034, -0.013545372, -0.018387996, 0.005475618, 
-0.08585591, 0.025745116, -0.08155559, 0.02580139, 0.08234928, -0.05425763, 0.06784218, -0.0505756, 0.07547688, 0.072689526, 
-0.040000316, 0.015326396, 0.023140065, -0.019820437, -2.341792E-4, -0.005631104, 0.009939812, -0.06936763, -0.04583685, -0.048427418, 
-0.05984229, 0.010417931, -0.07946737, 0.017141104, 0.031287, -0.08445416, -0.081415854, -0.022761904, -0.032614984, -0.048806548, 
-0.07688837, 0.08088278, 0.05036702, -0.07120849, 0.029326014, 0.007448688, 0.010273702, 0.035834923, -0.06561712, -0.07660177, 
-0.037874088, 0.027976885, 0.044597737, -0.004825875, -0.024669483, 0.051241316, -0.023447052, -0.04438275, -0.06574121, -0.043889005, 
-0.07444866, 0.0053474978, -0.08589352, -0.034949694, 0.066521786, 0.0063467175, -0.02354081, -0.035287086, 0.02410809, 0.0454411, 
0.03675565, 0.06723147, -0.08466071, -0.038479395, 0.08445161, 0.06809052, 0.07640589, 0.052952074, 0.07264026, 0.04772047, 
-0.042487506, 0.008097127, -0.062048335, -0.0037234053, -0.076030105, -0.030177582, 0.03917349, -0.08010232, -0.05652262, -0.037621547, 
-0.009651087, -0.0076597556, -0.06675887, -0.083163455, -0.052532565, -0.080155686, -0.07063019, 0.0074645206, -0.012126438, -0.0427308, 
-0.043043487, 0.006845847, -0.03687406, 0.07881669, 0.055198543, -0.023090802, -0.02630369, -0.010770164, 0.071794786, 0.022363186, 
-0.05080708, 0.001919888, 0.056786515, -0.03172385, -0.04971642, 0.043944217, 0.06197145, -0.017110765, 0.027525522, 0.06392411, 
-0.041788664, -0.08768957, -0.04206821, -0.09018197, -0.018174365, -0.0028203009, 0.013644392, -0.030082375, -0.068745725, 0.044172633, 
-0.09229126, -0.01209103, 0.046281934, 0.014755669, -0.029881045, 0.020092152, 0.08622804, -0.022736458, 0.034410574, -0.09558354, 
-0.04734022, 0.016037246, 0.009571644, 0.0070423847, -0.09303709, 0.049422536, -0.01641158, -0.06843933, 0.062389243, -0.08057854, 
-0.04611987, -0.089174405, 0.08832299, -2.3763125E-4, 0.06484642, -0.019899767, -0.09396688, -0.036747027, 0.046886776, -0.0735631, 
-0.022258155, 0.054312237, -0.040138185, 0.026378885, 0.0518839, -0.048942197, -0.074029095, 0.040950544, 0.035038486, 0.0537112, 
-0.019163959, -0.08026557, -0.03320301, 0.029880501, 0.07788914, 0.062600724, -0.05372206, 0.012745865, 0.04781484, 0.06282299, 
-0.010543816, -0.08354362, -0.02293221, 0.015462086, 0.06427374, 0.055624686, 0.0435287, -0.04558531, 0.066282995, -0.0059433132, 
0.053383134, 0.015716352, -0.03065601, 0.06902916, 0.032108516, -0.004304029, 0.068499126, 0.08397473, -0.017853193, -0.041364595, 
0.06488412, 0.072875015, -0.02048707, -0.036829498, 0.0682585, 0.059073888, -0.06226413, -0.039545204, -0.06943611, -0.048387356, 
-0.013092853, -0.04852798, 0.046376444, 0.045650266, 0.06328828, -0.0025119781, 0.030990273, -0.035383895, 0.0035916492, -0.044636514, 
0.04626695, -0.030103218, 0.085563324, -0.061158214, -0.04130014, -0.07315883, -0.0073331073, -0.058931753, 0.077191524, -0.006771587, 
0.018360823, 0.031128637, 0.071744, 0.052070297, 0.06440482, 0.0650189, 0.02576574, 0.07758074, -0.010493495, -0.056998417, 
0.052492432, -0.033495136, 0.08283255, 0.029239997, -0.07417622, -0.0023825467, -0.039569974, 0.031715646, -0.007948197, -0.014779389, 
0.07922756, 0.020441063, 0.081528045, -0.033767592, -0.027598456, 0.040227465, -0.024149, -0.003977537, -0.06897252, -0.036210325, 
-0.06829969, 0.03553772, -0.012528658, -0.043136667, 0.016382031, -0.04129098, 0.022036143, -0.0051574185, 0.04943227, 0.07738278, 
0.04420934, 0.06918367, 0.06507241, 0.067458116, -0.013594635, -0.016978242, 0.066948615, 0.046130218, 0.050264068, 0.00792291, 
0.01396247, 0.046787493, 0.08318365, 0.060824074, 0.034828223, -0.0318109, 0.06627869, -0.05958378, -0.035881825, 0.029188104, 
0.079052635, -0.08678149, -0.05192035, 0.0661271, 0.06472164, 0.037038952, 0.051199727, 0.0024852157, -0.034813777, 0.057541378, 
-0.014325768, -0.041127764, 0.029289454, -0.03293163, 0.07536746, 0.002383165, 0.08460606, 0.021719016, -0.07827358, 0.06697292, 
0.03258396, -0.017446764, 0.05352012, -0.05099214, -0.067197405, 0.06953191, -0.04938813, 0.0017558485, 0.014844388, -0.060062893, 
-0.06947501, -1.1328295E-4, -0.046434697, 0.016036415, -0.081727676, -0.022604069, 0.025496513, -0.08429444, 0.03597879, -0.05492441, 
0.06928615, -0.04762133, -0.04149936, -0.03986251, -0.062106587, 0.08182352, 0.09779683, -0.012470502, 0.015388295, -0.03750425, 
-0.034531202, 0.05712961, -0.20905192, -0.03896175, -0.21745642, 0.031601314, 0.114036754, -0.024518598, 0.012253559, -0.0063107503, 
-0.10507622, 4.980186E-4, -0.15684226, 0.003604569, -0.20812166, -0.015532954, 0.24025986, -0.11414379, -0.07459197, -0.13153096, 
-0.11453288, -0.0994332, -0.2054266, -0.14021404, -0.29780915, -0.12059843, 0.19617628, -0.08608339, -0.23399605, -0.051102076, 
-0.21907087, -9.2003575E-5, -0.23015563, -0.06805387, -0.35476664, -0.06728309, 0.24404967, -0.20599304, -0.2635495, -0.22046079, 
-0.19286753, -0.037831653, -0.42893127, -0.26549897, -0.36501703, -0.1329173, 0.45073435, -0.2785676, -0.27113968, -0.20038661, 
-0.10311175, -0.048116334, -0.44812155, -0.26209092, -0.48690408, -0.18807784, 0.39566413, -0.3665225, -0.3362623, -0.24945019, 
-0.101623505, -0.042217523, -0.57572824, -0.28738716, -0.63226956, -0.32280174, 0.5629896, -0.284906, -0.37431252, -0.3047211, 
-0.29606244, -0.21564963, -0.5875596, -0.2870988, -0.5644887, -0.443426, 0.45497096, -0.21345697, -0.39659512, -0.3239958, 
-0.39852187, -0.02876375, -0.47138715, -0.23789033, -0.5722496, -0.46417686, 0.45409903, -0.32211077, -0.4966837, -0.39595944, 
-0.2098117, -0.09019989, -0.2166269, -0.3705502, -0.5148554, -0.38711494, 0.14389582, -0.15805429, -0.56875247, -0.37183928, 
-0.36811042, -0.0984479, -0.024719061, -0.3283204, -0.5759902, -0.6322005, 0.16299416, -0.27956197, -0.61078477, -0.4890669, 
-0.18668528, -0.25281134, -0.33268073, -0.24647221, -0.5347722, -0.5933949, 0.38618687, -0.19472317, -0.3995832, -0.37720397, 
-0.28339082, -0.067030355, -0.45743123, -0.212057, -0.48236942, -0.31729606, 0.49101728, -0.050440438, -0.29310715, -0.34724542, 
-0.20416991, -0.085055515, -0.31867042, -0.13153277, -0.33465138, -0.41403908, 0.520683, -0.012673134, -0.29167727, -0.20652537, 
-0.23190264, -0.14094763, -0.30006754, -0.23346087, -0.32477537, -0.30063832, 0.44863993, 0.004533794, -0.24034272, -0.19380994, 
-0.18190071, 0.049190626, -0.20754306, -0.027927153, -0.19976892, -0.108298644, 0.25445393, -0.009787845, -0.13596125, -0.1692114, 
0.043643404, 0.012297962, -0.11963308, -0.007848005, -0.13199757, -0.121414125, 0.11379763, -0.043402083, -0.10449957, -0.14112583, 
0.01268491, 0.07630279, -0.015484763, 0.010694924, -0.08434542, -0.09923444, 0.06073158, -0.09257972, 0.036979143, -0.117205694, 
0.023602821, 0.05831509, 0.06847756, -0.024055846, 0.08538508, -0.05461098, 0.056959905, -0.002569735, -0.061596435, -0.04182207, 
-0.049042843, -0.06349754, 0.015984476, -0.078682825, -0.062403858, 0.08573697, -0.07325269, -0.07247938, 0.08465808, -0.08159549, 
-0.066003904, -0.057226166, -0.0498546, 0.011239924, 0.005207248, 0.037456445, 0.07077969, -0.08148419, 0.03204485, 0.08351169, 
0.034868017, 0.07736606, -0.027821817, -0.030613065, 0.07408816, -0.061952602, 8.653104E-5, 0.07874941, 0.008543037, -0.051854674, 
-0.051786963, 0.056935035, -0.018221922, 0.008355804, 0.04499989, 0.02181653, -0.0046595335, -0.03832242, -0.039896898, -0.043536216, 
0.07690758, -0.034374665, 0.071743034, -0.032581743, 0.0011765659, -0.032898366, 0.06905172, 0.019843653, 0.0767288, -0.08293118, 
-0.08931943, 0.056582242, 0.039463013, 0.004812298, 0.02315722, 0.035157036, 0.078602135, -0.03640016, -0.041392684, -0.075721696, 
-0.025289286, -0.06788573, -0.024856808, 0.020384654, 0.030529601, 0.026688434, -0.017404947, 0.011184107, -0.023253936, 0.012194349, 
-0.06689698, 0.010824173, -0.13327698, 0.03682162, -0.06289087, -0.09870335, 0.17341907, -0.01612107, 0.012429485, -0.08923566, 
-0.07432701, 0.034685154, -0.053214274, -0.046917763, -0.07281079, -0.094817646, 0.261799, 0.022648076, -0.07865246, 0.012966293, 
-0.051751733, -0.12239064, -0.2024624, -0.23260488, -0.31399575, -0.12288731, 0.24574004, -0.07586089, -0.14914052, -0.18408304, 
-0.19150287, -0.16825141, -0.3578243, -0.38237146, -0.3994898, -0.3446462, 0.4754615, -0.31641087, -0.2866836, -0.13514596, 
-0.2973639, -0.16637176, -0.15469864, -0.58026284, -0.56484085, -0.33584148, 0.5312167, -0.44119254, -0.5418368, -0.39982033, 
-0.60589033, -0.28655648, -0.055925004, -0.7348056, -0.87380683, -0.54640573, 0.39785486, -0.5794188, -0.77301484, -0.5552792, 
-0.959241, -0.39277408, -0.15370548, -0.761447, -0.96963006, -0.6742837, 0.54815394, -0.68395346, -1.0068556, -0.77641636, 
-0.68929607, -0.3867208, -0.08029582, -0.7020315, -1.2833941, -0.79975635, 0.601886, -0.781931, -1.0520929, -1.0533174, 
-0.6509335, -0.47799435, -0.04181983, -0.77192247, -1.2747728, -0.920662, 0.50685483, -0.7800621, -1.3643284, -1.1411496, 
-0.75075084, -0.309327, -0.1353857, -0.88992804, -1.1289428, -1.2371522, 0.33241025, -0.92604136, -1.5846081, -1.2783788, 
-0.9030996, 0.087047964, -0.18374743, -0.80362916, -1.0792041, -1.3221277, 0.44687602, -0.9833219, -1.663403, -1.4360133, 
-0.9853825, -0.034996007, -0.094933785, -0.71953267, -1.1797016, -1.2780178, 0.32818994, -0.8993583, -1.9583485, -1.6023254, 
-0.87494713, -0.10653248, 0.011087514, -0.8992049, -1.0549271, -0.90234125, 0.20654485, -0.6939009, -1.8030434, -1.2989689, 
-1.1492122, -0.37913695, -0.14375748, -0.7073439, -1.1031843, -0.8240486, 0.30973428, -0.62962914, -1.3014827, -1.1922185, 
-1.3141322, -0.39054924, -0.30875298, -0.76271623, -1.4857041, -0.5778892, 0.4544437, -0.5635012, -1.3194579, -1.150418, 
-1.121333, -0.40176734, -0.7216927, -0.7976541, -1.0104009, -0.45634624, 0.65617317, -0.4751134, -1.1604475, -0.9561321, 
-0.98596406, -0.35718942, -0.9201415, -0.7817971, -0.83473384, -0.5821626, 0.5275688, -0.3139564, -1.183629, -0.6391541, 
-0.77041435, -0.39434105, -0.8418309, -0.7367032, -0.6852585, -0.633942, 0.65403575, -0.19358993, -0.78158146, -0.457318, 
-0.56154275, -0.30819905, -0.61945266, -0.5541446, -0.47322714, -0.42173102, 0.43568918, -0.1363921, -0.6163506, -0.31571838, 
-0.42797765, -0.25686985, -0.35598212, -0.24193701, -0.40118724, -0.29915965, 0.38017732, -0.063587196, -0.26813397, -0.2014741, 
-0.13671537, -0.124510065, -0.02168872, -0.10452417, -0.14601436, -0.2700809, 0.13171177, -0.097008325, -0.23022634, -0.103118725, 
-0.048858717, -0.009428459, -0.0066554938, -0.04059498, -0.097769275, -0.15342337, 0.09165024, -0.078595534, -0.0590781, 0.05993454, 
-0.004352279, 0.061982, -0.013426818, -0.019081116, -0.017195135, -0.08045871, -0.023035072, -0.067292675, 0.03413114, -0.07549613, 
0.08090342, -0.08519462, -0.072938494, 0.05594202, -0.028887335, -0.039666306, -0.056174576, 0.07683013, -0.064598195, -0.05047711, 
0.06206774, 0.030112587, 0.001013875, -0.07684099, -0.016309828, 0.008054249, 0.032411754, 0.04694631, -0.017762579, 0.017371655, 
0.015463121, 0.008752473, -0.019298464, 0.043381877, 0.010036126, -0.0048744753, 0.063574485, 0.04329256, -0.013674326, 0.038784884, 
0.02516183, 0.059204135, -0.031595744, -0.12260509, -0.11053112, 0.018482514, 0.0015619138, -0.012386737, -0.0709463, -0.021094015, 
-0.060456943, -0.022714172, -0.089742675, -0.08924329, -0.16115697, 0.011041434, 0.015201338, 0.017834472, -0.18347009, -0.02061368, 
-0.12100721, -0.029420463, -0.10707111, -0.16850798, -0.11548004, -0.044584442, 0.020621296, -0.020004358, -0.2516078, -0.07275051, 
-0.18399765, -0.19535165, -0.017521909, -0.015331115, -0.2214026, -0.27818787, -0.018069055, -0.18051624, -0.2626866, -0.088082984, 
-0.30128196, -0.27484187, 0.046691094, -0.23361272, -0.426498, -0.30897242, 0.19442548, -0.37614495, -0.4996097, -0.3351796, 
-0.42906705, -0.4657901, 0.03179045, -0.17586455, -0.5675909, -0.5785987, 0.29124755, -0.5406624, -0.8317585, -0.4710116, 
-0.52153707, -0.5404518, 0.09105317, -0.14925008, -0.69620854, -0.69039214, 0.27841607, -0.66395485, -0.89926773, -0.7290042, 
-0.48454463, -0.53476673, 0.2172892, -0.052016303, -0.82905143, -0.7140145, 0.07595881, -0.8003112, -0.9729949, -1.0244138, 
-0.37655818, -0.6962402, 0.19474728, -0.18840097, -0.81030065, -0.5883351, 0.14924422, -0.8186934, -1.004953, -1.1544347, 
-0.21154802, -0.7954745, 0.18432038, 0.08706288, -0.9397413, -0.53676474, 0.09992139, -0.9892552, -1.1614424, -1.4114494, 
-0.31475207, -0.5041, 0.2209735, 0.17918406, -1.1673274, -0.4154298, 0.020010175, -0.96646357, -0.90893877, -1.6087321, 
-0.2735281, -0.3109119, 0.23571245, 0.107971855, -1.1023432, -0.34217787, 0.020834388, -1.0777317, -0.77827656, -1.6309392, 
-0.21588998, -0.19649622, 0.016659923, 0.054567084, -0.9549327, -0.26630026, -0.0013316445, -1.1231204, -0.8115624, -1.7193102, 
-0.31472802, -0.17771438, 0.04207991, -0.009244486, -0.8097812, -0.20902713, 0.007211368, -1.1282349, -0.69775504, -1.8507851, 
-0.27705428, -0.13999592, 0.017039867, -0.0045486838, -0.71323115, -0.2801915, -0.09512887, -1.1258129, -0.6111008, -1.7426803, 
-0.21139993, -0.38979825, -0.15317307, 0.014190187, -0.67601323, -0.12240766, -0.03183482, -1.0120397, -0.64116156, -1.5244359, 
-0.36892617, -0.46325436, -0.19549185, 0.010098442, -0.59739494, -0.03762101, 0.06409471, -1.054941, -0.5065235, -1.3685938, 
-0.46299806, -0.5696632, -0.31912783, -0.111967236, -0.37721807, -0.04871142, 0.19035111, -0.8514121, -0.6887993, -1.3420881, 
-0.46715617, -0.5757319, -0.38725773, -0.1460857, -0.23230848, -0.04304191, -0.03199745, -0.7091628, -0.89540756, -1.2255695, 
-0.48918256, -0.4404094, -0.5134736, -0.2911151, -0.19010556, 0.017376501, 0.14291434, -0.59045255, -0.6198371, -0.99571234, 
-0.675722, -0.54660946, -0.62636566, -0.61520994, -0.13583493, -0.10908673, 0.24203849, -0.5082114, -0.4251003, -0.8247503, 
-0.46319428, -0.38277134, -0.5835106, -0.62771213, -0.30458602, -0.2533503, 0.27082828, -0.31382895, -0.4122363, -0.4674238, 
-0.51484567, -0.34281704, -0.46714413, -0.4261326, -0.2822699, -0.1270718, 0.031340096, -0.14722128, -0.45739168, -0.24460728, 
-0.1352385, -0.19705819, -0.26158848, -0.21340226, -0.2606945, -0.1822286, 0.037088457, -0.064043745, -0.28842044, -0.11747896, 
0.00846589, -0.12119694, 0.04047593, 0.058737833, -0.078724526, 0.005304322, 0.08404317, 0.07967205, 0.020933762, 0.05847465, 
0.021758504, -0.040224817, 0.0823599, -0.05874431, -0.037013333, -0.0764111, 0.037490107, -0.04712252, -0.07361778, 0.07810176, 
0.06344675, -0.05940842, -0.030683242, -0.03394946, -0.06916697, -0.024938479, 0.052256666, -0.07247126, -0.07905066, -0.06186025, 
-0.05295974, 0.00705376, -0.0071314285, 0.07839177, -0.0032651445, -0.0063241837, 0.014241973, -0.031426877, -0.03167853, 0.018634167, 
-0.09499134, 0.07795914, -0.1343252, -0.02573949, -0.029940529, -0.06957829, -0.022078013, -0.025641358, -0.07878181, -0.054801688, 
-0.17621972, -0.037714828, -0.04468149, 0.052174438, -0.16640991, -0.19845416, -0.0020796084, -0.06791858, -0.17813946, -0.045421813, 
-0.28124055, -0.09934512, -0.28306085, 0.13873886, -0.021091463, -0.51408696, -0.23129556, -0.13182287, -0.51611483, -0.27664983, 
-0.59935683, -0.19171382, -0.07282196, 0.13040546, -0.08081666, -0.52500284, -0.1602615, -0.382438, -0.77330667, -0.41098, 
-0.4695469, -0.39524305, 0.14962046, 0.12952664, -0.20748176, -0.44833633, -0.10309223, -0.535117, -0.84391856, -0.7478887, 
-0.36896518, -0.54197454, -0.024111964, 0.21150036, -0.2794026, -0.37411854, -0.095275655, -0.7033492, -0.5543871, -0.9033722, 
-0.2690068, -0.40010414, 0.108345926, 0.22601034, -0.30833358, -0.4732016, 0.007968871, -0.91145027, -0.31491643, -1.2266942, 
-0.11884172, -0.29419452, 0.17152761, 0.028725537, -0.4574773, -0.2883709, -0.07912823, -0.9807186, -0.22995073, -1.5796535, 
-0.1925626, -0.13662437, 0.13142711, 0.21724287, -0.5361266, -0.2283408, -0.07927065, -1.2155939, -0.1502244, -1.2660595, 
-0.053398907, -0.24108927, 0.16071351, 0.18295182, -0.5202918, -0.109953225, -0.25629517, -1.0459473, -0.0098693175, -1.104331, 
-0.25366786, -0.15115452, 0.05670378, 0.16960178, -0.4439364, -0.18829311, -0.23648176, -1.1502205, -0.038170278, -0.8897801, 
-0.15004893, -0.06485841, 0.097764924, 0.12041375, -0.44446173, -0.33641225, -0.17388923, -1.3256925, -0.057395853, -0.8828186, 
-0.17838776, -0.045557346, 0.08179121, 0.09953487, -0.4521964, -0.12421021, -0.21377169, -1.3075111, 0.11254533, -0.8300899, 
0.002733885, -0.0026328377, -0.0781495, 0.07242171, -0.51041746, -0.066304885, -0.11396506, -1.4810915, 0.10586433, -0.83944625, 
-0.17223229, -0.20321794, 0.014438365, 0.08703543, -0.3342729, 0.05051093, -0.14339444, -1.7820766, 0.0032721078, -1.1440533, 
-0.013811986, -0.12584354, -0.062656105, -0.0049071126, -0.26288134, 0.05901173, -0.03289892, -2.25053, 0.016814109, -1.1675868, 
-0.16551101, -0.20469682, -0.099393316, 0.051144928, -0.21805213, 0.060165647, -0.052905943, -2.056388, -0.10157555, -1.1917657, 
-0.09785852, 0.043462105, -0.20078112, -0.07273559, -0.035094686, -0.04311191, 0.04179807, -1.8731339, -0.10307449, -1.7392083, 
-0.1742734, 0.12809631, -0.21662663, -0.23127332, 0.18306696, -0.124242894, 0.12991887, -1.6444892, 0.038879443, -1.7644495, 
-0.30253315, 0.04323952, -0.45645994, -0.3478698, 0.1008986, -0.039469518, 0.18958607, -1.059553, -0.072966315, -1.6718273, 
-0.2280519, -0.11187694, -0.64600474, -0.38372344, 0.14208624, 0.02906735, 0.16356453, -0.92598027, -0.24982817, -1.4515634, 
-0.3066852, -0.21408269, -0.84623307, -0.90314627, 0.18063079, 0.030047743, 0.18554315, -0.8344713, -0.42472327, -1.2409945, 
-0.4086898, -0.29352963, -0.91057587, -1.1359024, -0.06369549, 0.19625619, -0.06402684, -0.5306176, -0.3229041, -0.79813814, 
-0.48733664, -0.4250697, -0.48063397, -0.6248351, -0.14639722, 0.18462864, -0.15782554, -0.41268814, -0.062265474, -0.42594624, 
-0.26442772, -0.2729626, -0.17069115, -0.100100294, -0.22272184, -0.015091177, -0.28398043, -0.07079462, -0.13123678, -0.16115907, 
0.04082626, -0.11992846, -0.11180246, -0.022967028, -0.14242433, -0.121243626, 0.07369958, -0.013271473, -0.06110188, -0.060360447, 
0.031465463, 0.041703127, -0.022281699, 0.022379793, 0.0766635, -0.053987745, 0.021936081, 0.08383418, 0.05880461, -0.079779595, 
-0.043307405, -0.039932337, -0.041165795, 0.06588585, 0.038009755, 0.0166457, 0.025110334, 0.049704067, 0.063893564, -0.072694145, 
-0.09168136, 0.01578409, -0.108141884, -0.061404493, -0.094832584, -0.093146026, -0.023208665, 0.039261635, -0.1607509, 0.0042545754, 
-0.20870276, 0.055108525, -0.17889482, 0.18280497, -0.12009076, -0.35724536, -0.24729066, -0.26220626, -0.4269786, -0.1963354, 
-0.50705487, -0.08018088, -0.13581958, 0.27339083, -0.03776342, -0.55715036, -0.2128954, -0.26934534, -0.678525, -0.53766346, 
-0.55502194, -0.2931657, -0.15643144, 0.21417433, 0.0925564, -0.51371354, -0.31033692, -0.19952159, -0.71413827, -0.8055118, 
-0.27342185, -0.3502729, -0.037361197, 0.14050981, -0.05652887, -0.4020717, -0.1970875, -0.19073603, -0.49658138, -1.1870047, 
-0.2303499, -0.4826259, -0.055866763, 0.15302733, -0.20167038, -0.29173928, -0.17886643, -0.14492545, -0.31918243, -1.1887875, 
-0.17469767, -0.4195461, 0.0051106606, -0.013643045, -0.14158434, -0.18600686, -0.17284271, -0.10898056, -0.23649783, -1.0652906, 
-0.15735467, -0.42649472, -0.030819789, -0.030706609, -0.14501347, -0.19940679, -0.20743951, -0.12071587, -0.18710229, -0.7946153, 
-0.019149445, -0.24976568, 0.07441346, 0.082099214, -0.13092849, -0.073934235, -0.10255978, -0.25426975, -0.18430434, -0.31979865, 
-0.10735083, -0.3517186, 0.031047717, 0.052436784, -0.23676917, -0.022045396, -0.36014473, -0.31151214, 0.04829941, -0.03192017, 
-0.07297963, -0.2119396, 0.097186044, -0.004028343, -0.21384956, -0.1667419, -0.22447848, -0.2661521, 0.058962524, -0.12204648, 
0.050724894, -0.13910821, 0.038270608, 0.024488484, -0.27618697, -0.07416572, -0.29593104, -0.40127966, 0.053088244, -0.038933147, 
0.06564029, -0.15512004, 0.08299009, -0.02045652, -0.07815026, -0.146782, -0.17521283, -0.37836874, 0.11091719, -0.19471589, 
0.09084768, -0.023343537, 0.083670534, 0.118933715, -0.09636586, -0.15836754, -0.13215564, -0.4593227, 0.052414387, -0.23887116, 
9.594774E-4, -0.21063583, 0.20765139, 0.0811987, 0.0035389655, -0.061455145, -0.15492836, -0.46504772, 0.052084863, -0.48425055, 
0.058219217, -0.2674853, 0.03178252, -0.07170354, -0.053544108, 0.055357046, -0.049745332, -0.63821304, 0.068872064, -0.4427925, 
0.13782436, -0.15746634, 0.009304542, -0.07578784, -0.037663095, 0.03476622, -0.00818005, -0.81222224, -0.053693708, -0.404895, 
-0.01955125, -0.096810386, -0.14294703, -0.024792178, 0.07463554, -0.0030998443, 0.10779409, -0.9481175, -0.002055548, -0.40213716, 
-0.17517127, -0.010266417, -0.07676692, -0.19955012, 0.055401023, 0.100599125, 0.065783545, -1.2220715, -0.010884685, -0.4464441, 
-0.006406827, 0.08767638, -0.14720276, -0.3311056, 0.020557765, 0.051411398, 0.028007675, -1.2418591, -0.07361314, -0.82426965, 
-0.17548823, 0.12753719, -0.243268, -0.38793024, 0.06135651, 0.01755151, 0.025936164, -1.3228348, -0.22794747, -1.098241, 
-0.36733952, 0.0018235638, -0.65749735, -0.65092987, 0.27627733, 0.033411242, 0.08729518, -1.5043684, -0.3253442, -2.11458, 
-0.63402426, -0.15758687, -1.0178018, -1.0912794, 0.14471693, 0.2529147, 0.0684315, -1.3266357, -0.37028295, -1.8508997, 
-0.876247, -0.6614109, -0.67540836, -1.2337074, -0.17582211, 0.27964464, -0.3118974, -0.7368745, 0.008029208, -1.1271547, 
-0.5089419, -0.3130739, -0.60172766, -0.50288504, -0.36440113, 0.374048, -0.325432, -0.3959513, -0.24499166, -0.549183, 
-0.058546726, -0.13622531, -0.06623475, -0.13420337, -0.1914449, 0.06523085, 0.0020157006, -0.039423697, -0.04162684, -0.13005444, 
-0.047929738, -0.042179212, -0.07591789, 0.05055607, 0.056663744, 0.008546665, 0.08662357, -0.08496865, 0.04160195, 0.07048497, 
-0.08151616, -0.044940293, -0.08814485, -0.033592217, -0.049111232, -0.09600429, -0.07806382, 0.041558936, 0.048028823, -0.057261664, 
-0.25652382, -0.12778147, -0.08292022, -0.1641893, -0.18496267, -0.23828894, -0.06926705, 0.12700236, -0.30783722, -0.27706698, 
-0.5246155, -0.14154713, -0.16121496, 0.10467702, -0.25841066, -0.4880249, -0.4049715, 0.041383203, -0.59773463, -0.44938156, 
-0.48882014, -0.06162766, -0.014475947, 0.22199595, -0.08938293, -0.5809063, -0.42180312, -0.049242504, -0.47042128, -0.73211837, 
-0.33170095, -0.34588763, 0.03587049, 0.09475697, -0.03548626, -0.40652043, -0.23840635, 0.11216134, -0.5503911, -0.9837708, 
-0.15472804, -0.4203319, 0.043517496, 0.09519414, 0.0033356887, -0.26027212, -0.36530408, 0.09464309, -0.32073364, -0.7421228, 
-0.14069024, -0.44225305, -0.025311694, 0.023835208, -0.026801076, -0.13509291, -0.05478291, 0.0830224, -0.20588963, -0.70832384, 
-0.18561234, -0.4449438, 0.06129636, 0.07610046, -0.17234744, -0.07578187, -0.1269532, 0.107522495, -0.002818275, -0.3445378, 
-0.21839769, -0.43265235, 0.09273365, 0.12050261, -0.06962666, -0.08933224, -0.05107934, 0.105051026, -0.06960431, -0.14809589, 
-0.065198116, -0.2942228, 0.0020551393, 0.13012588, -0.23400642, -0.022205139, -0.31264395, 0.14097649, -0.18594083, -0.08303756, 
-0.15168497, -0.23301762, 0.021510629, -0.04558741, -0.25482658, -0.05707409, -0.29158774, 0.085865654, -0.02893124, 0.0907361, 
-0.06806802, -0.28572342, -0.0042398055, 0.10310218, -0.33917227, -0.033879343, -0.20842062, 0.12181673, 0.038102385, 0.10631809, 
0.04006047, -0.19102934, 0.037150264, 0.06802716, -0.4941968, -0.029548295, -0.17606081, -0.17246076, 0.027069114, 0.18542674, 
0.009514181, -0.22695316, 0.037183445, 0.057410643, -0.37920335, -0.049496047, -0.15870471, -0.12403659, -0.016188119, 0.28981537, 
0.06987839, -0.28419745, 0.07789137, 0.08759425, -0.47742254, -0.0529295, -0.14434336, -0.04484849, 0.14648347, 0.16946836, 
0.040625796, -0.3533374, 0.033369273, 0.097192355, -0.36598447, -0.051662233, -0.139204, 0.019128438, 0.08957694, 0.25274703, 
0.1532349, -0.3555701, -0.03579031, 0.06264024, -0.27189785, -0.046709154, -0.09140438, -0.08323267, 0.030846898, 0.20466188, 
0.09201883, -0.23970523, 0.0034307428, -0.023362113, -0.327042, 0.08765669, -0.20997807, -0.1007416, -0.042640183, 0.13577855, 
0.10138313, -0.1862649, -0.079106875, -0.06566987, -0.18178505, 0.037290394, -0.027639985, -0.089979805, -0.010140652, 0.031587716, 
-0.012448668, -0.04373231, -0.13890746, -0.10971858, -0.22991605, 0.04716313, -0.082649015, -0.14636587, 0.041161593, 0.00168723, 
0.150108, -0.019741587, -0.14862044, -0.10447523, -0.077794194, -0.056751773, 0.036199175, -0.0152303735, -0.0130525185, -0.18024656, 
0.013338295, -0.017949387, -0.3015901, -0.26085514, 0.14172931, 0.073857285, -0.0052493694, -0.31833047, -0.1541936, -0.5444845, 
-0.18712045, -0.25418377, -0.70476305, -0.54498243, 0.24050243, 0.052389916, -0.080835, -0.63487965, -0.057048704, -0.8094818, 
-0.6381828, -0.43686146, -1.1304528, -0.9918443, -0.04704427, 0.35225585, -0.18443416, -1.0708158, -0.10964775, -1.1093223, 
-1.1098989, -0.83503795, -1.1556027, -1.5387648, -0.1291942, 0.39173713, -0.4437436, -1.0786703, 0.05090923, -0.98935837, 
-0.55379933, -0.46791285, -0.679632, -0.68940336, -0.29196596, 0.2745301, -0.53358483, -0.76618856, -0.21820427, -0.8588353, 
-0.1332805, -0.067020655, -0.17119238, -0.2015478, -0.23757596, 0.11402157, -0.014644047, -0.14663984, -0.182856, -0.24061346, 
0.014511432, 0.02450456, -0.057652522, -0.061619062, 0.055413704, 0.042711355, 0.07401899, 0.06316605, 0.01271567, 0.04306304, 
-0.049871277, -0.15071711, -0.18542056, -0.04330398, -0.19800821, -0.09575641, -0.0128479265, 0.01709614, -0.056969695, -0.14362668, 
-0.23878908, -0.075635426, -0.27763844, -0.17443708, -0.3775019, -0.14372401, -0.121577315, 0.32566077, -0.4072178, -0.48102695, 
-0.43907392, -0.1260377, -0.17753763, 0.19216715, -0.21330263, -0.7363771, -0.42523932, 0.24969399, -0.758026, -0.7920754, 
-0.54264325, -0.35424006, 0.14654303, 0.16774099, 0.051262412, -0.8110618, -0.3437222, 0.05747573, -0.22464551, -0.8161074, 
-0.2365039, -0.52068204, 0.03413916, 0.1312598, 0.13499103, -0.54822147, -0.3532468, 0.06704603, -0.2798269, -0.81931746, 
-0.1308493, -0.5272902, 0.1070856, 0.14964984, -0.16672014, -0.1705374, -0.3696848, 0.18792365, -0.20593853, -0.57908374, 
-0.17958635, -0.4454642, 0.01470962, 0.009272189, -0.11422122, -0.07553986, -0.12809469, 0.20610279, -0.040400133, -0.4699088, 
-0.3174585, -0.5239041, -0.024003463, -0.0390181, -0.03626425, 0.06640434, -0.09978347, 0.0783715, -0.055845864, -0.18535542, 
-0.05027224, -0.3469301, -0.04061798, 0.07840028, -0.117802255, 0.02674003, -0.15567654, 0.2408471, -0.005957024, -0.063144594, 
-0.093607895, -0.33122057, -0.029541431, -0.03483144, -0.19077612, 0.07492769, -0.14288971, 0.16850865, -0.008714889, -0.12764229, 
0.04583505, -0.16698924, 0.03902783, 0.043877542, -0.21825689, 0.102430865, -0.13177429, 0.15366428, -0.12285372, 0.019121122, 
0.04786797, -0.12008814, -0.059256993, 0.035175737, -0.410958, -0.043392394, -0.07632849, 0.13291356, -0.124301046, 0.06316321, 
0.057787925, -0.24446096, 0.08158643, 0.075937785, -0.3904202, -0.052560527, -0.23943685, -0.02615266, -0.034617875, 0.23191132, 
0.027494267, -0.15849796, 0.02050096, 0.20688902, -0.4481058, 0.009230305, -0.11246281, -0.11471852, -0.18256466, 0.29752132, 
0.06681772, -0.35155553, -0.030824853, 0.06990511, -0.5058088, -0.20484515, -0.15561725, -0.028312635, 0.035344735, 0.4075492, 
0.10930273, -0.3030158, -0.11737524, -0.0014665405, -0.4447152, 0.056611598, -0.24043971, 0.08008744, -0.03883314, 0.32193935, 
0.22307868, -0.28322068, -0.1409707, 0.022194058, -0.31092617, 0.032110337, -0.23315832, 0.08121063, -0.08613865, 0.118094906, 
0.19691548, -0.13356854, -0.094668165, 0.023401054, -0.2513915, -0.0056486246, -0.23281276, 0.14306608, 0.047960304, 0.057396963, 
0.15573397, -0.08495926, -0.07844933, 0.010836027, -0.12377658, 0.08196225, -0.32550037, 0.12302923, -0.008447791, -0.015742023, 
0.04895179, -0.06965851, -0.0917144, -0.09288473, -0.18211277, 0.12838984, -0.22360979, 0.0076933457, 0.030895617, -0.08270143, 
0.038265392, -0.07095014, -0.036979493, -0.16358787, -0.07042865, 0.02856214, -0.11044947, 0.018030636, 0.014788398, -0.10742214, 
-0.06437393, -0.27762026, -0.040373765, -0.22364496, -0.06989872, 0.07364122, -0.32949328, -0.15386854, -0.05872872, -0.26211965, 
-0.020200014, -0.3103924, -0.49305245, -0.5381749, 0.105705306, 0.1145989, -0.29588017, -0.27736387, 0.035138477, -0.52558744, 
-0.3956872, -0.6293869, -1.0522681, -1.1483564, -0.09032972, 0.43769172, -0.3249859, -0.60982764, -0.05398207, -0.86925644, 
-1.0500902, -0.9172353, -1.1002084, -1.5827786, -0.20779453, 0.5604565, -0.6182138, -0.92344075, -0.1126704, -1.085973, 
-0.79495776, -0.51088405, -0.75378627, -0.76429105, -0.19273223, 0.25441518, -0.578618, -1.0006095, -0.07065334, -0.8424706, 
-0.16429524, -0.11610267, -0.16817522, -0.2606632, -0.34979784, 0.093745984, -0.15725197, -0.22863598, -0.113533236, -0.33056492, 
-0.0030933246, -0.091066994, -0.09301988, -0.058383062, -0.06367339, -0.08935748, 0.022353161, 0.0019683905, -0.008591855, -0.08523502, 
-0.16152886, -0.03360891, -0.10434355, -0.1308441, -0.1928754, -0.24444589, 0.0073274747, 0.23129542, -0.20412982, -0.3487981, 
-0.2360007, -0.14795215, -0.24598026, -0.4445626, -0.36558118, -0.4222334, -0.19631033, 0.38033104, -0.5821682, -0.6755664, 
-0.34502593, -0.3048031, -0.25140303, 0.06268666, -0.25500083, -0.85280794, -0.43000004, 0.27215648, -0.3857799, -0.7083368, 
-0.4698586, -0.42551196, 0.13556086, 0.24899335, -0.10300454, -0.90943116, -0.46321914, 0.20339693, -0.23454383, -0.70087266, 
-0.24930269, -0.616899, 0.100234166, 0.11871666, 0.0073680626, -0.44115633, -0.40706697, 0.06546711, -0.13610062, -0.506239, 
-0.17396668, -0.41020963, -0.06977427, 0.008634976, -0.036438633, -0.28999856, -0.22585243, 0.098450094, 0.069764875, -0.30828825, 
-0.21122645, -0.4955616, 0.070154555, -0.009010121, -0.079386495, -0.20929188, -0.11556351, 0.19745734, 0.040662363, -0.38048923, 
-0.16055794, -0.48216593, -0.072553165, -0.049263235, -0.21896137, 0.06901156, -0.1927, 0.12718153, 0.025934888, -0.100029424, 
0.026940893, -0.50257, 0.06406135, 0.05699136, -0.020823965, 0.0027693997, -0.12947123, 0.052866817, 0.06970767, -0.19421288, 
-0.0128551405, -0.24700369, 0.20057379, -7.150602E-4, -0.18524708, 0.048453934, -0.20974115, 0.10432248, 0.07364018, -0.17613755, 
-0.0963497, -0.28822836, 0.028851595, -0.038966633, -0.2141203, 0.099137396, -0.2297073, 0.15537716, -0.026242897, -0.14551304, 
0.019499088, -0.1017237, -0.03670993, -0.05116527, -0.32018661, -0.015772255, -0.16537061, 0.15210918, 0.08323284, -0.10074272, 
-0.0056131547, -0.053234152, -0.056349326, 0.09840557, -0.3409384, -0.06416165, -0.20061775, 0.11071523, 0.0018404438, -3.402842E-4, 
0.14315839, -0.036132753, 0.09375367, 0.060353737, -0.46717003, -0.202549, -0.3065589, 0.08480149, -0.07536354, 0.21583031, 
0.09966831, 0.0066865385, -0.017464256, 0.16492413, -0.41273254, -0.17547841, -0.28789878, 0.16440085, -0.13363121, 0.18722075, 
0.26275876, -0.19029894, 0.006567282, 0.14560659, -0.37096602, -0.19433707, -0.43067738, 0.19010612, -0.012360025, 0.04931156, 
0.25224236, -1.8040428E-4, 0.0032290448, 0.073907375, -0.24859194, -0.11719099, -0.4569265, 0.18834722, -0.038409013, -0.031425104, 
0.17156905, -0.16852821, -0.19266161, 0.06492678, -0.11996823, -0.078767225, -0.5705976, 0.18106592, 0.0018711676, -0.042017825, 
0.039215375, -0.1787125, 0.05535342, 0.045768086, -0.17978661, 0.0011384264, -0.5399644, 0.028311923, 0.0680975, -0.15570249, 
0.03451474, -0.16638, -0.01623474, 0.097587645, -0.08604683, 0.15262067, -0.37393194, 0.009867235, 0.021581635, -0.11296545, 
0.011269643, -0.22978456, -0.08260273, -0.033337332, -0.066315204, 0.16796312, -0.24850464, -0.12677662, 0.03540635, 0.00706091, 
0.10844829, -0.3563998, -0.19850446, -0.07463203, -0.13121824, 0.019736366, -0.38088527, -0.042399928, 0.032158766, -0.3049613, 
0.17389454, -0.53452516, -0.23841731, -0.44462386, -0.12497122, 0.33163705, -0.5070691, -0.23268561, 0.068280816, -0.43115047, 
-0.22605813, -0.804813, -1.4374915, -1.4875027, -0.23190938, 0.56171334, -0.8173182, -0.45462936, 0.071905605, -0.7686883, 
-1.2985396, -0.9805544, -1.3258673, -1.5764663, -0.32140508, 0.6476589, -0.94202346, -0.89460284, -0.009739834, -0.961692, 
-0.7822346, -0.5873496, -0.71436256, -0.7399038, -0.43003905, 0.27171272, -0.4588234, -0.77190566, 0.13477445, -0.93485963, 
-0.25618154, -0.062002055, -0.25101236, -0.0718173, -0.14755446, 0.12544756, -0.18331333, -0.13401715, -0.038402226, -0.28065938, 
-0.027959323, -0.11574815, -0.018989928, -0.07345739, -0.049286965, -0.10455764, -0.06093397, 0.06893681, -0.014110665, -0.0020988109, 
-0.16800016, -0.011233036, -0.24608622, -0.2524185, -0.30390048, -0.12856305, -0.16094296, 0.2809813, -0.16999242, -0.31218487, 
-0.27266154, -0.23180392, -0.23137385, -0.39791262, -0.3721115, -0.60632175, -0.21453457, 0.4226917, -0.6760661, -0.74072325, 
-0.39490944, -0.3468448, -0.1650662, 0.05274093, -0.37671077, -0.71294576, -0.47876805, 0.25806665, -0.46656892, -0.81046313, 
-0.3786975, -0.36724034, 0.10995251, 0.28864643, -0.37869316, -0.7913057, -0.40350696, 0.1531756, -0.15085128, -0.56004137, 
-0.18352304, -0.58225, 0.10790972, -0.025726935, -0.2061889, -0.3794722, -0.42723182, 0.13549998, -0.06487024, -0.22633426, 
-0.24506849, -0.47973776, -0.08986448, 0.07481949, -0.33219007, -0.14712547, -0.3163812, 0.04090709, 0.044930436, -0.09695833, 
-0.21775721, -0.34505814, -0.0154319815, 0.058980815, -0.11357837, -0.08041193, -0.16476792, 0.09475155, 0.019171424, -0.11580495, 
-0.104176626, -0.27708152, -0.04113833, -0.04265594, -0.10189244, 0.031044126, -0.1639381, -0.011067765, 0.14148776, -0.09479182, 
-0.07540127, -0.32297283, 0.06929844, -0.2102755, -0.12817366, 0.05479022, -0.19037853, -0.016193194, 0.10591196, -0.07398378, 
-0.053734604, -0.22051887, 0.022853587, -0.17615087, -0.17666677, 0.08425502, -0.19143151, -0.0050489, 0.028181406, 0.016864242, 
-0.10439201, -0.047784314, 0.038112294, -0.3298595, -0.10854182, 0.22018981, -0.16792466, -0.0028647422, 0.039914913, -0.095335335, 
3.151307E-4, -0.082052104, -0.018211812, -0.29956272, -0.085983396, 0.08349972, -0.30331114, 0.115993015, 0.045364823, -0.057836, 
0.021231994, 0.07028596, 0.019714799, -0.050824743, -0.1984438, 0.017973581, -0.19853453, 0.095014945, -0.056182086, -0.043507352, 
0.05653637, 0.2494966, 0.08217922, 0.13969196, -0.52557963, -0.23297653, -0.25238562, 0.24736717, -0.25421378, 0.027509809, 
0.0022142776, 0.38939774, 0.1754844, 0.2980055, -0.36787152, -0.3840845, -0.2990192, 0.23488335, -0.31665766, 0.062056247, 
0.18129064, 0.07988983, 0.061388478, 0.17264788, -0.12676693, -0.3259564, -0.4527777, 0.26371303, -0.24299267, -0.12816714, 
0.16532528, -0.06385416, -0.015579624, 0.103438176, -0.09614968, -0.21083614, -0.5928469, 0.2870316, -0.025587039, -0.084604956, 
0.24536885, -0.15750971, 0.036074854, 0.1032791, 0.002347768, -0.17007098, -0.64925706, 0.15235898, -0.09384283, 0.0167919, 
0.14414337, -0.31015718, -0.037237655, 0.11732432, -0.054032743, -0.12762354, -0.47215238, 0.18539819, 0.05416366, -0.16227692, 
0.14086649, -0.34699354, -0.06875854, 0.19003437, -0.094625, -0.039658237, -0.3258858, 0.016945481, 0.06361506, -0.064018875, 
-0.11642439, -0.41919613, -0.1470803, 0.08636465, -0.04863329, 0.021083921, -0.37607244, 0.06176089, 0.050406847, -0.1662739, 
0.00309344, -0.51665527, -0.17395504, 0.08469433, -0.1442531, 0.19987965, -0.34954178, -0.070165776, 0.07544743, -0.24707831, 
0.17777662, -0.9136517, -0.2945815, -0.3255185, -0.27335244, 0.39603865, -0.5429861, -0.25773638, 0.055390436, -0.4638397, 
0.02290717, -0.95814663, -1.3022708, -1.7473744, -0.55361164, 0.8848273, -0.7804901, -0.50195277, -0.15437678, -0.8436349, 
-1.0275512, -0.883413, -1.2348025, -1.211086, -0.5698359, 0.87159103, -1.0648326, -0.87431103, -0.24333437, -1.0318749, 
-0.7108921, -0.566528, -0.71702266, -0.6657604, -0.6242175, 0.37530428, -0.77424794, -0.6216732, -0.039439548, -0.92512727, 
-0.28165773, -0.19484805, -0.23721454, -0.18239158, -0.27433276, 0.1095443, -0.21855845, -0.04401507, 0.05999138, -0.26491725, 
-0.059905324, 0.034110222, 0.021966731, -0.018564682, -0.10399496, -0.058852702, -0.08131087, 0.0092218, 0.043357246, 0.022483429, 
-0.18753265, -0.05549387, -0.11889585, -0.37609679, -0.23665817, -0.22369985, -0.18740545, 0.51819074, -0.2934355, -0.40728414, 
-0.38652855, -0.23270082, -0.17464077, -0.4062553, -0.43133682, -0.6232064, -0.27632535, 0.49145633, -0.615664, -0.6717467, 
-0.28728232, -0.270247, -0.19916274, 0.28034243, -0.45442083, -0.71207076, -0.4291754, 0.37662247, -0.41954556, -0.6495818, 
-0.31588587, -0.36984593, -0.14260283, 6.0390425E-4, -0.32923055, -0.40741792, -0.53823954, 0.220544, -0.043027848, -0.41560918, 
-0.081740275, -0.4899381, 0.0928441, -0.05431774, -0.3722201, -0.34787887, -0.32885078, 0.110043384, -0.08811105, -0.036992192, 
-0.23654002, -0.5513309, 0.018151112, -0.016637418, -0.3130936, -0.12054514, -0.16400503, -0.101955175, 0.069882356, 0.028965553, 
-0.16411984, -0.2937448, -0.21925557, -0.17312628, -0.115527965, 0.054370508, -0.013711513, -0.038246676, 0.063440494, 0.04115448, 
-0.133235, -0.28101486, -0.14369296, -0.29573765, -0.10938686, 0.19194844, -0.050508365, -0.12302701, 0.06110689, 0.0048896065, 
-0.01176172, -0.31012607, -0.17883253, -0.44089594, 0.12908451, 0.21832378, -0.14945412, -0.09053291, 0.1755239, 0.005918027, 
-0.12869929, -0.20735705, -0.13619654, -0.4807153, -0.03016238, 0.17740448, -0.10615315, -0.021527952, 0.23066059, 0.06978232, 
-0.029628525, -0.09322975, -0.18937463, -0.54373395, -0.046519518, 0.17907359, -0.21756823, -0.0022556144, 0.07039281, 0.14223482, 
-0.037233807, -0.1455257, -0.17911194, -0.42957702, 0.15276703, 0.2801193, -0.120103, -0.09471006, 0.10818645, 0.07477215, 
0.06957752, 0.22398707, -0.30388713, -0.058470286, -0.32907793, 0.18084152, -0.12200962, 0.16284986, -0.013025802, -0.11517765, 
-0.12860087, 0.4729548, -0.26913628, 0.10746772, -0.7130929, -0.014936972, -0.306103, 0.27960202, -0.12931632, -0.07916495, 
-0.27553722, 0.55272037, -0.19194238, 0.13272096, -0.3396957, -0.17654198, -0.5218082, 0.3338802, -0.36975822, -0.13853335, 
-0.092482306, 0.3391309, -0.004151373, 0.1174399, -0.043223374, -0.3302808, -0.4259115, 0.4657678, -0.26087087, -0.054770965, 
0.13144876, -0.022208933, 0.035112597, 0.092086785, 0.0070736716, -0.3588993, -0.47229508, 0.33310127, -0.20957607, -0.010137223, 
0.16883455, -0.22235885, 0.029242547, 0.16618462, -0.09883937, -0.38807708, -0.4329073, 0.21880724, 0.0058816457, -0.0046268026, 
0.12679125, -0.17241296, 0.021624627, 0.090041436, -0.011937006, -0.3427531, -0.374697, 0.14493126, 0.06808995, -0.029704204, 
0.06895796, -0.4467081, -0.052222837, 0.1765678, -0.14808385, -0.21157366, -0.24284497, 0.22394992, 0.03187173, -0.10323332, 
-0.024118263, -0.5156146, -0.19285569, -0.01192078, -0.13119645, -0.18809222, -0.32853264, 0.116852164, 0.0041797217, -0.15806718, 
0.0923982, -0.7163777, -0.2127475, -0.055086296, -0.16632845, -0.06850119, -0.2495905, -0.034840588, 0.04489707, -0.090658315, 
0.19342369, -0.954176, -0.24192546, -0.42713332, -0.42938855, 0.3516588, -0.24965471, -0.3707773, -0.05136312, -0.41251278, 
0.04643002, -1.1068153, -0.81662315, -1.5493704, -0.73850304, 0.8181563, -0.49823216, -0.81375134, -0.28078347, -0.7510384, 
-0.7941415, -0.6568417, -0.7304264, -0.9860738, -0.68456084, 1.0133024, -0.910642, -0.6571797, -0.4504418, -0.94617796, 
-0.58781064, -0.26965204, -0.6289516, -0.5858559, -0.55404574, 0.6156881, -0.78907293, -0.47280937, -0.113021396, -0.7186337, 
-0.24425553, -0.109957494, -0.20616917, -0.10608145, -0.06363148, -0.05096484, -0.13499087, -0.035589796, -0.08301573, -0.22800149, 
-0.09389298, 0.0587338, 0.027137348, -0.1633751, -0.08578078, -0.0876397, -0.061027553, 0.029161796, -0.06963, -0.0702839, 
-0.092914216, -0.05303247, -0.12043602, -0.3306581, -0.25121573, -0.2646736, -0.095026284, 0.24776606, -0.26464877, -0.32880938, 
-0.5020922, -0.090861045, -0.45916194, -0.4049655, -0.39506796, -0.51280844, -0.2346673, 0.41410834, -0.5812248, -0.4833467, 
-0.4673036, -0.26255256, -0.39219543, 0.12886785, -0.45757768, -0.4877351, -0.49077183, 0.34315974, -0.46634468, -0.5094834, 
-0.54180956, -0.23231599, -0.30090174, -0.10798436, -0.27031255, -0.17932636, -0.44088197, 0.282552, -0.09715556, -0.2127703, 
-0.20437613, -0.31923774, -0.23078531, -0.3569039, -0.1689944, -0.093889214, -0.132266, -0.020035366, 0.036291037, 0.053914517, 
-0.071433134, -0.56280833, -0.2723408, -0.34245455, -0.10264353, 0.046412334, -0.07781489, 0.035174623, 0.13254495, 0.10526127, 
-0.06900086, -0.39897722, -0.53282136, -0.48054418, -0.107999414, 0.056821503, -0.046389103, 0.003752849, 0.22466302, 0.05409982, 
-0.16133651, -0.4265342, -0.4251909, -0.59836924, 0.09145395, 0.057618454, 0.028257754, -0.01869428, 0.21797766, 0.20954013, 
-0.09926783, -0.29297107, -0.52956265, -0.41888228, 0.1757649, 0.05326027, 0.07421793, 0.047968186, 0.14067765, 0.13740551, 
-0.20355718, -0.22291332, -0.69035476, -0.41058215, 0.18960099, 0.08323195, -0.053571977, 0.06702743, 0.107490845, 0.09483596, 
-0.1023055, -0.23242812, -0.6689838, -0.32849997, 0.20317362, 0.11496778, -0.097019754, -0.0835173, 0.017872917, 0.13717379, 
-0.17864215, -0.2675454, -0.7573831, -0.14068455, 0.21200334, 0.1939614, -0.05512869, -0.13755119, 0.07373864, -0.1404587, 
-0.16522989, 0.1507142, -0.71380734, -0.024929108, -0.40051678, 0.2938448, 0.112321615, -0.0077213696, 0.2161932, -0.08754545, 
-0.3845731, 0.58285385, -0.66797876, 0.13810618, -0.67758346, -0.062306557, -0.30499563, 0.09110263, 0.13964163, -0.10607174, 
-0.65199715, 0.6285345, -0.3596938, 0.055061754, -0.0996186, -0.16190544, -0.47578207, 0.39824197, -0.131183, -0.014872177, 
-0.50506824, 0.18852325, -0.22404487, 0.054851145, 0.21454836, -0.28179723, -0.3730523, 0.35998815, -0.24546322, 0.14726226, 
-0.1502805, -0.025639597, -0.18934055, 0.15273081, 0.11449938, -0.22404194, -0.27863586, 0.26721618, -0.16619767, 0.20654489, 
-0.07676416, -0.15912595, -0.1653377, 0.075822964, -0.031243902, -0.2599224, -0.27278638, 0.36172125, -0.09966884, 0.16891266, 
-0.024446715, -0.17108282, 0.06951288, 0.033555638, -0.09126723, -0.45240867, -0.23970377, 0.042588, -0.043186046, 0.104799345, 
0.016314745, -0.34423912, -0.14876275, 0.09798983, -0.22019684, -0.63035965, -0.21315093, 0.13707522, -0.06664951, 0.34333596, 
0.196559, -0.63730097, -0.0908501, -0.26200724, -0.17815796, -0.63808626, -0.10947203, 0.094903104, 0.013418722, 0.11388653, 
0.06899612, -0.58152974, -0.17431861, -0.2533211, -0.2635758, -0.5959073, -0.05134097, -0.03180322, 0.12534572, 0.05661197, 
0.2142952, -0.6589736, -0.2978928, -0.56914693, -0.6675439, -0.17848638, 0.110356934, -0.32467014, 0.13738373, -0.24745736, 
0.16679122, -0.8263623, -0.37620854, -1.1530452, -0.78938967, 0.29268196, -0.25082076, -0.9676339, 0.0444494, -0.67384565, 
-0.44490108, -0.40208098, -0.17981337, -0.8127696, -0.71224874, 0.73385376, -0.6562123, -0.7964027, -0.23294704, -0.8824368, 
-0.58930945, -0.18225804, -0.42556688, -0.48770368, -0.3292216, 0.35590503, -0.49590153, -0.33839417, -0.035608288, -0.5251142, 
-0.10861942, -0.017578643, -0.24794921, -0.015211377, -0.038117446, -0.074275866, -0.014795675, -0.07650807, -0.07675673, -0.25674248, 
0.01892014, -0.014302354, -0.03864563, -0.06292868, -0.10224242, -0.0654846, 0.07056898, 0.12358875, -0.11232919, -0.13843828, 
-0.055773053, 0.0205149, -0.10855, -0.31888798, -0.10756092, -0.31045967, -0.19251476, 0.31944728, -0.25848123, -0.39169514, 
-0.41595098, -0.13685586, -0.40527377, -0.37802917, -0.357265, -0.5319553, -0.31623393, 0.45796213, -0.5289333, -0.6575006, 
-0.5517728, -0.16977273, -0.5294607, -0.14085752, -0.36850217, -0.3652667, -0.5837862, 0.4037225, -0.5015884, -0.3654271, 
-0.38565615, -0.08425242, -0.3869812, -0.25426063, -0.48003203, -0.23659839, -0.5349575, 0.19223724, -0.13886598, 0.06222684, 
-0.13608809, -0.39431632, -0.5534175, -0.391451, -0.20143172, -0.05823001, -0.16742507, -0.014339914, 0.019470789, 0.21382564, 
-0.0130982995, -0.47301477, -0.8331761, -0.5133615, -0.06004223, 0.19699831, -0.013964221, 0.018590782, 0.03118816, 0.25361696, 
0.046636112, -0.31933424, -0.85458255, -0.40371734, 0.21570615, 0.12108147, 0.097196236, 0.075505644, -0.0016049666, 0.06606366, 
-0.047540218, -0.16273823, -0.70127034, -0.42332384, 0.19859073, -0.01973975, 0.056424536, 0.13799697, -0.055962607, 0.17152302, 
-0.14637262, -0.19317093, -0.61454755, -0.19421504, 0.22826172, -0.07619869, 0.06916089, -0.048669517, 0.050631918, 0.18878767, 
-0.047940396, -0.35708752, -0.61987555, -0.14037326, 0.34875956, 0.07056221, -0.073695615, -0.1462785, -0.14877892, 0.18157247, 
-0.06072633, -0.4686544, -0.60811955, -0.11221633, 0.40017843, 0.17251259, 0.10937771, -0.19650567, -0.15105371, 0.0047896523, 
-0.0604208, -0.17581788, -0.63379526, -0.070441484, 0.41113412, 0.19138615, 0.042128436, -0.5704652, 0.023194764, -0.2235836, 
-0.27794614, 0.2434768, -0.5618703, 0.096225604, -0.22170642, 0.21399312, -0.011199071, -0.66154647, 0.26051882, -0.10074983, 
-0.56754804, 0.5841978, -0.45984823, 0.17697383, -0.42722225, -0.034820307, -0.29865652, -0.32429355, 0.14133248, 0.072244905, 
-0.76075363, 0.47813123, -0.41337895, 0.057345398, 0.114141, -0.18610848, -0.40052873, 0.14782895, -0.008589285, 0.19411719, 
-0.6957305, 0.047990754, -0.39577147, 0.035506353, 0.30235708, -0.3779507, -0.12389748, 0.33902022, -0.004804499, 0.27638268, 
-0.22588749, -0.06278748, -0.3003221, -0.024896303, 0.04073018, -0.3646169, -0.21213093, 0.22956881, -0.114678696, 0.28971392, 
-0.10582027, -0.13908166, -0.1927822, 0.07522097, -0.06019409, -0.27570754, -0.20854281, 0.15385492, -0.06987814, 0.25259936, 
-0.036948588, -0.29074553, -0.078290135, -0.089472935, 0.08108698, -0.32491213, -0.26301044, -0.07009612, 0.115063325, 0.25128224, 
-0.082021326, -0.44228166, -0.120666236, -0.22186959, -0.051477887, -0.55368084, -0.19282138, -0.05393564, 0.08309237, 0.23140132, 
0.10191425, -0.39619514, -0.14525712, -0.5006297, 0.068814926, -0.82776487, 0.06428093, -0.10630557, 0.25000593, 0.25681004, 
0.13687441, -0.37097788, -0.29826343, -0.64555794, 0.0022172094, -1.0606697, 0.29846027, -0.036707725, 0.24138846, 0.20145132, 
0.26541767, -0.5949201, -0.42212626, -0.92087823, -0.48243678, -1.1261774, 0.37946126, -0.3727586, 0.34226203, -0.049431182, 
0.29056388, -0.7214048, -0.08499851, -0.9918031, -0.46719262, -0.92216325, 0.24167192, -0.7037255, 0.2127874, -1.0098804, 
-0.19545628, -0.45729217, 0.12602249, -0.5064658, -0.39880627, -0.070219755, -0.4607418, -0.34915406, -0.033628665, -0.9622374, 
-0.27624777, -0.22330502, 0.01948475, -0.36557916, -0.24371608, 0.05111273, -0.43871248, -0.23550157, -0.040693007, -0.55086327, 
-0.0562306, -0.07828016, -0.09154927, -0.14201875, -0.1374908, -0.10396728, -0.11520253, 0.006925318, -0.035409387, -0.21768034, 
-0.031170143, 0.013497039, -0.07964618, -0.04621975, 0.05451042, 0.048133608, -0.026955714, -0.0035581177, -0.10586842, -0.07158735, 
-0.12853624, -0.0025630998, -0.10079445, -0.24952266, -0.084150605, -0.20380771, -0.079095885, 0.13448277, -0.124631315, -0.2648298, 
-0.25003383, -0.060168475, -0.13233557, -0.39172575, -0.2620056, -0.4829401, -0.17343749, 0.42729214, -0.47855556, -0.43940926, 
-0.362155, -0.05093617, -0.50550926, -0.30899906, -0.27962482, -0.22735648, -0.54722506, 0.31219235, -0.4711018, -0.23887178, 
-0.21826816, -0.1597144, -0.77811265, -0.36375183, -0.21268603, -0.18960379, -0.62636954, 0.22258799, -0.2642219, 0.13154238, 
-0.048465565, -0.33517143, -0.82662576, -0.51977587, 0.022070246, 0.046845768, -0.0071068816, 0.01918833, -0.14019422, 0.21908173, 
0.08064456, -0.47597954, -0.7996227, -0.3932646, 0.26175842, -0.12600194, 0.25866553, -0.023225687, -0.07000184, 0.0525366, 
0.13729192, -0.23576069, -0.71503204, -0.40345186, 0.22814356, 0.0011796562, 0.039398532, 0.08883852, -0.09923853, 0.20035948, 
-0.06564693, -0.07539701, -0.4371662, -0.21066634, 0.25571892, -0.096914396, 0.049044307, -0.13100164, -0.14760615, 0.08596769, 
0.02261024, -0.26722297, -0.38092092, -0.11499613, 0.2025186, 4.5449342E-4, 0.06643128, -0.1113306, -0.097619876, 0.037933327, 
0.06397789, -0.74028826, -0.26508826, -0.1966533, 0.39394474, 0.12379803, 0.16762294, -0.20282131, -0.22254455, -0.0065823803, 
0.0074973814, -0.5299857, -0.11770053, -0.2014288, 0.47796422, 0.21178862, 0.09662881, -0.44617334, -0.07284807, -0.13244751, 
-0.058593996, -0.29022706, -0.2174969, -0.0032393595, 0.322746, 0.31697693, 0.08128355, -1.0367877, 0.17430475, -0.22522153, 
-0.4669545, 0.25818548, -0.091378324, 0.09440264, -0.101132035, 0.0751946, -0.10830232, -0.9297091, 0.19893005, 0.03562479, 
-0.69847864, 0.49207163, -0.25617605, 0.017571375, -0.22937322, -0.15633152, -0.22110839, -0.34866062, 0.021277575, 0.1822449, 
-0.9520377, 0.35679197, -0.3317033, 0.0029292621, 0.18481384, -0.32467294, -0.11031424, 0.028467234, 0.07617618, 0.19732392, 
-0.7076816, 0.10005871, -0.24942504, -0.085200466, 0.2402241, -0.50803, -0.060487647, 0.14811374, 0.07173012, 0.28949377, 
-0.24468455, 0.078810394, -0.22188474, -0.013941393, 0.24834138, -0.3184175, -0.14698511, 0.11285696, -0.1680613, 0.25714362, 
-0.1955803, -0.17661406, -0.23877104, 0.053373657, 0.17699033, -0.31097186, -0.27278644, 0.07536903, -0.13362679, 0.2416514, 
-0.06150574, -0.54077274, -0.08493894, -0.16164151, 0.13501576, -0.1584384, -0.07993508, -0.04262512, -0.029304015, 0.25200787, 
-0.19648972, -0.5557754, -0.17283453, -0.39416176, 0.18669453, -0.14907582, -0.15092483, 0.08524402, 0.05873644, 0.22388758, 
-0.07701511, -0.44125012, -0.1811355, -0.5023434, 0.2211437, -0.369199, 0.08558721, -0.059364747, -0.16071793, 0.21271054, 
0.091333896, -0.52686685, -0.24491867, -0.6465116, -0.040391155, -0.5076777, 0.16754563, -0.110013515, -0.061876677, -0.015769785, 
0.15670785, -0.65849036, -0.37033704, -0.655246, -0.26697147, -0.8634887, 0.3574538, -0.25234634, -0.055415515, -0.36629525, 
0.2502438, -0.66847, 0.1930004, -0.75633603, -0.336935, -0.9585725, 0.31057134, -0.40516397, -0.18773052, -1.0451344, 
-0.10307354, -0.43508616, 0.40683162, -0.5779338, -0.3133179, -0.42815363, -0.3540554, -0.23839979, -0.1693296, -0.7431268, 
-0.43304086, -0.29296935, 0.4669537, -0.44579786, -0.1975262, -0.1551698, -0.47546482, -0.2062169, -0.2974681, -0.43606547, 
-0.13665295, 0.004761401, -0.020301895, -0.12987904, -0.11594984, -0.08541574, -0.10770871, -0.021285448, -0.0986992, -0.06491174, 
0.056611273, 0.030385572, -0.11566294, -0.009414152, -0.0960743, 0.10530934, -0.038751695, -0.08103153, -0.11117658, -0.03967597, 
-0.07092978, -0.07527999, -0.04257837, -0.06633866, -0.0030143883, -0.17860988, -0.08063075, 0.07940311, -0.024875997, -0.119917676, 
-0.27193868, -0.060501143, -0.15538576, -0.16757868, -0.23997109, -0.30091184, -0.19311404, 0.37325516, -0.27185, -0.44986206, 
-0.5684846, -0.059353903, -0.37601233, -0.33951932, -0.13298021, -0.3631115, -0.558692, 0.23030841, -0.5090083, -0.18603608, 
-0.111370206, -0.07071444, -0.4701751, -0.30634007, 0.034567356, -0.26547292, -0.67583644, 0.048100535, -0.7445856, 0.057775613, 
0.09616758, -0.46351814, -0.6112652, -0.43591103, 0.19709167, -0.18329434, 0.06422369, 0.062318463, -0.30804244, -0.035997774, 
0.07897621, -0.5407422, -0.46509206, -0.44125208, 0.19731526, -0.08761318, 0.13988172, -0.05917423, -0.33853126, 0.051681288, 
0.23551778, -0.57455885, -0.2619207, -0.44053406, 0.25010797, -0.123693556, 0.08508151, -0.18740901, -0.3774683, -0.032199882, 
0.16334063, -0.21855564, -0.2653802, -0.24749166, 0.26771078, -0.09136831, -0.018947164, -0.19648129, -0.37525982, 0.040850908, 
0.024620136, -0.3637989, -0.12972595, -0.22016175, 0.20013434, 0.0928438, 0.14634337, -0.20712693, -0.3049602, -0.09240446, 
0.021856233, -0.62610865, -0.04934432, -0.21770193, 0.2757167, 0.18792462, 0.17299874, -0.30439374, -0.14292529, -0.028599983, 
0.12579197, -0.5932872, -0.11802817, -0.14545031, 0.2599637, 0.07445407, 0.19051434, -0.62494725, 0.1243896, -0.16705176, 
-0.024887294, -0.13483825, 0.010982038, -0.043036226, 0.15476304, 0.027319156, 0.09374991, -0.9340247, 0.13856924, -0.103974774, 
-0.38917392, 0.37428916, 0.062491525, 0.10542656, -0.18164644, 0.012818812, -0.23248035, -0.6065104, 0.23963475, -0.10157718, 
-0.7776388, 0.4940955, -0.04012022, 0.050543472, -0.1194473, -0.18823603, -0.15329295, -0.3180495, 0.100425124, -0.020543061, 
-0.8850921, 0.305963, -0.13256039, -0.101420745, 0.09409626, -0.26964295, 0.019146614, -0.10222281, 0.055228163, 0.15687911, 
-0.72235394, 0.06615463, -0.17806076, -0.03113941, 0.2612335, -0.3505768, -0.047045883, -0.0341242, -0.07748958, 0.2896937, 
-0.2688914, -0.1438902, -0.2944751, -0.0644219, 0.3384829, -0.2886025, -0.21075022, 0.10333715, -0.14128369, 0.19235738, 
-0.054063465, -0.45317465, -0.07408935, -0.07020859, 0.23455758, -0.23887311, -0.27781367, 0.30164486, -0.062925056, 0.15651849, 
-0.19455391, -0.79361767, -0.18837434, -0.10361947, 0.24305016, -0.17801581, -0.1416065, 0.24933456, -0.16722311, 0.09557647, 
-0.1055296, -0.6757461, -0.18994097, -0.2825345, 0.1666596, -0.15042326, -0.029437697, 0.22174753, -0.28739598, 0.1267272, 
0.06962944, -0.51851285, -0.17369254, -0.13222624, 0.05801006, -0.20431533, 0.04705383, 0.11541133, -0.24615964, 0.014769448, 
0.05551749, -0.4523719, -0.34489697, -0.41235185, -0.111493185, -0.17484988, 0.124919206, 0.010094202, -0.47215304, -0.22722232, 
0.17750664, -0.72459364, -0.19953415, -0.38419014, -0.29766336, -0.3587918, 0.14697874, -0.044662155, -0.5072579, -0.6728437, 
0.17407455, -0.584335, 0.02939517, -0.5768551, -0.42954648, -0.39932695, 0.032896828, -0.37567717, -0.44234988, -1.182382, 
-0.123476915, -0.33836675, 0.2717057, -0.73521554, -0.30481902, -0.6235218, -0.25947016, -0.3565491, -0.35593525, -0.8667815, 
-0.40465662, -0.29895517, 0.54971683, -0.3101895, -0.35844707, -0.4512687, -0.52975774, -0.4361098, -0.4608953, -0.38569456, 
-0.0110140955, -0.043475278, 0.14853808, -0.098108515, -0.12419239, -0.06673178, -0.13708945, -0.12108336, -0.17398949, -0.010182954, 
0.006711405, -0.05872684, 0.05212116, 0.0065933224, -0.07709974, 0.016207274, -0.057559587, 0.028226709, -0.08033436, 0.011604313, 
0.02958613, -0.039426222, -0.0020175604, -0.013767293, 0.071476765, 0.0078304745, -0.07537056, -0.03530001, -0.07214777, -0.0014805052, 
-0.24447146, -0.04299001, -0.29590648, 0.017472913, 0.030905025, -0.2748878, -0.12180696, 0.07706481, -0.34587994, -0.27360147, 
-0.585318, 0.08649149, -0.06013161, 0.06432158, 0.070751525, -0.28048304, -0.55703354, -0.049761835, -0.6651555, -0.266171, 
-0.0790486, -0.18011637, -0.10302423, -0.1810696, 0.07238041, -0.32582867, -0.73805344, -0.052253846, -0.9459471, -0.032603342, 
0.14957581, -0.54099184, 0.0051910393, -0.25240567, 0.06270034, -0.40649283, -0.19174714, -0.15311128, -0.58906555, -0.028023528, 
0.024926899, -0.7185211, 0.051329024, -0.38890478, 0.085844725, -0.25078884, 0.05638634, -0.07855045, -0.49964017, -0.035841253, 
0.159168, -0.34177497, -0.079612255, -0.36772007, 0.13942829, -0.2900424, 0.049383666, -0.16816735, -0.2972542, -0.036207452, 
0.115338646, -0.25486264, -0.07284213, -0.38305613, 0.23989189, -0.17839903, 0.11874206, -0.26856467, -0.30680588, -0.05575746, 
0.23193346, -0.46776947, -0.066527024, -0.24426927, 0.19303994, 0.063600816, 0.07786133, -0.35861853, -0.1666381, -0.17925483, 
0.14795446, -0.4688585, -0.0795262, -0.2863461, 0.12143242, 0.043489605, 0.21635684, -0.37979326, -0.15367925, 0.009343411, 
0.030029077, -0.185888, -0.11055842, -0.053381238, 0.20159711, 0.06052896, 0.26026163, -0.54685014, -0.038571324, -0.079231575, 
-0.07129572, 0.06518837, 0.019655628, 0.01454255, 0.04265897, 0.049583185, 0.11604151, -0.6302578, 0.13530393, -0.122814715, 
-0.59127, 0.32941696, 0.16150412, 0.10271158, -0.14328155, -0.09755714, -0.019078845, -0.43414506, 0.26108846, -0.13470353, 
-1.0598341, 0.49290916, -0.018555794, 0.017167587, 0.008492224, -0.30801576, 0.07328024, -0.28260028, 0.13886324, -0.18759052, 
-0.80640674, 0.21364856, -0.028589152, -0.004338568, 0.1702279, -0.28039706, -0.023033373, -0.083617665, 0.06402519, 0.012813721, 
-0.46019128, -0.03595291, -0.035009198, -0.12555909, 0.4825635, -0.29477325, -0.11780383, -0.043395992, -0.12643932, 0.2203143, 
-0.25421715, -0.44881743, -0.18273823, -0.15266638, 0.28761297, -0.26631552, -0.14684385, 0.30285832, -0.1092091, 0.18904933, 
-0.12748829, -0.77844495, -0.15252441, -0.05612787, 0.07588685, 0.04254243, -0.08434846, 0.40528408, -0.16552407, -0.021814106, 
-0.10900398, -0.93200254, -0.087008215, 0.017086403, 0.18142241, -0.10110376, -0.048098825, 0.35621384, -0.16285332, 0.007165471, 
0.091404036, -0.84368896, -0.1416849, 0.04050427, -0.12322704, -0.14478801, 0.017435323, 0.324572, -0.3771022, -0.0012717921, 
0.07358012, -0.49613854, -0.25315574, -0.0046864343, -0.10072961, -0.14364417, -0.033497658, 0.2889076, -0.36965925, -0.09887488, 
0.015421419, -0.6442273, -0.29848698, -0.007296075, -0.016339974, -0.08825689, 0.018673858, 0.15086126, -0.34855184, -0.22942449, 
0.17083341, -0.8325938, -0.16702424, 0.08963776, -0.28342915, -0.14340839, -0.02111118, -0.04182551, -0.45167482, -0.7782409, 
0.094067164, -0.7413448, 0.1865731, -0.30218965, -0.58546495, -0.17688146, 0.0076579894, -0.35435137, -0.50209385, -1.3062193, 
-0.13948007, -0.41588324, 0.3953793, -1.0680193, -0.41569355, -0.50797397, -0.112648405, -0.44167873, -0.5707641, -0.8465694, 
-0.5083506, -0.37893286, 0.6332485, -0.4828928, -0.38037536, -0.53968596, -0.55387795, -0.44533682, -0.6338625, -0.29194036, 
-0.110958286, -0.13525034, 0.12013742, -0.17701036, -0.051416494, -0.20521577, -0.13229215, -0.064849935, -0.083398886, -0.09114076, 
0.038495656, -0.011683484, 0.08170317, 0.04985269, -0.04372343, -0.06953249, 0.02983312, 0.04782642, -0.11285852, 0.048367437, 
-0.049342632, 6.7132583E-4, -0.06664068, 0.10864359, -0.050871704, -0.09393898, 0.057369474, -0.08652571, -0.089639015, 0.020108197, 
-0.29231697, -0.069120675, -0.15635715, 0.15721957, -0.13145198, -0.32541108, -0.24120753, -0.19243985, -0.2988008, -0.3246713, 
-0.74890214, -0.18298163, 0.13105837, 0.18369542, -0.14055282, -0.2538277, -0.67681515, -0.10463059, -0.75388956, -0.34775373, 
-0.02137003, -0.3491622, 0.08438923, 0.0559767, -0.34049067, -0.3792124, -0.76934195, -0.03598059, -1.0657408, -0.03742439, 
0.052438464, -0.6301252, 0.0743918, -0.0735021, -0.15393591, -0.21016733, -0.1639567, -0.18819432, -0.5636546, -0.07070624, 
0.061099432, -0.6590861, 0.12466902, -0.21353114, -0.06345767, -0.32743967, 0.07879361, 0.004312082, -0.31414285, -0.19442621, 
0.0719579, -0.69052374, -0.10229775, -0.34147862, 0.24166228, -0.4479955, 0.10283, -0.06446856, -0.17894539, -0.061033756, 
0.21119289, -0.35575432, -0.11367262, -0.4320044, 0.316853, -0.3011092, 0.1624368, -0.1677329, -0.017036846, 0.06013706, 
0.14896935, -0.11304016, -0.046541847, -0.25993666, 0.122433685, -0.3714254, 0.19184712, -0.19957815, -0.07243319, -0.14331967, 
0.19006875, -0.15752898, 0.12933458, -0.23657358, -0.03011096, -0.18147981, 0.40653238, -0.43287385, 0.017762115, 0.039517723, 
0.0044275615, -0.20846345, 0.16230811, -0.17020988, -0.042075768, -0.1844911, 0.344403, -0.62133485, 0.008817273, -0.01727387, 
-0.31497455, -0.1330651, 0.18159595, -0.04900869, -0.05689318, -0.15876369, 0.09765582, -0.3248516, 0.1504276, -0.094165616, 
-0.90418214, 0.38981476, 0.20894414, 0.035056125, -0.0574716, -0.17181805, -0.12192399, -0.1838954, 0.1916607, -0.28160042, 
-0.75403494, 0.42033485, 0.06368971, -0.122460954, 0.2501579, -0.33136418, 0.09741039, -0.20328826, -0.031566814, -0.16528757, 
-0.51256686, -0.0042686705, -0.027807299, -0.17325424, 0.4524757, -0.29375568, 0.04108252, -0.042875238, -0.041364484, 0.05939816, 
-0.31042683, -0.20155747, 0.042359084, -0.23457004, 0.2805774, -0.28355032, -0.105458066, 0.06619525, -0.009789477, 0.16790521, 
-0.09574321, -0.6899314, 0.11553394, -0.048912324, 0.27615818, -0.09382644, -0.21449758, 0.2575405, -0.09511881, 0.09301678, 
-0.053242374, -0.9273118, -0.031023983, 0.08928566, 0.117647395, -0.09513567, 0.008746208, 0.12539178, -0.32481822, 0.075445175, 
0.0020545004, -0.90939456, -0.07209132, 0.16744202, 0.09858055, -0.07124469, 0.036151055, 0.24313603, -0.31309628, -0.17994896, 
-0.01488677, -0.7819915, -0.17789768, 0.048814807, 0.049532812, -0.02158468, -0.08126487, 0.12746319, -0.36311638, -0.1562665, 
-0.017828263, -0.5617344, 0.0491042, 0.039426647, 0.016948663, -0.08267529, -0.036303665, 0.17695951, -0.3753234, -0.32208273, 
-4.083757E-4, -0.6298103, 0.008978977, 0.15402935, -0.20370996, -0.002814868, -0.16011873, -0.13105962, -0.42618805, -0.33905065, 
-0.030023584, -0.7522689, -0.04618573, 0.1470657, -0.23416731, -0.08267305, -0.14675224, -0.24022835, -0.2482795, -0.7379112, 
-0.0979555, -0.5149762, 0.18750072, -0.109587215, -0.44751602, -0.20322521, -0.17811063, -0.41956508, -0.44694987, -1.1404557, 
-0.3172226, -0.58342665, 0.6540622, -1.1256298, -0.4609706, -0.66489565, -0.17027439, -0.7106678, -0.7111972, -0.9644565, 
-0.43474162, -0.22397248, 0.6191911, -0.72759306, -0.18958704, -0.55718416, -0.58510584, -0.48774636, -0.6640257, -0.5157674, 
-0.086569056, -0.10711852, 0.16323254, -0.17254582, -0.16666402, -0.17960605, -0.17169678, -0.104541324, -0.19746673, -0.15964401, 
-0.023951575, -0.082935885, -0.03586678, 0.07527641, -0.08521356, 0.028885283, 0.079192154, 0.07911231, 0.05586005, 0.021056607, 
-0.12748249, 0.0040062647, -0.08357576, -0.008192323, 0.031856034, -0.09939546, -0.030882234, -0.06761799, -0.14544003, -0.023166802, 
-0.39100862, -0.06059747, -0.167941, 0.2799354, -0.02767437, -0.41563675, -0.15087683, -0.24782807, -0.3614557, -0.35836056, 
-0.654579, -0.42308986, 0.11347905, 0.27332285, -0.503682, -0.22049263, -0.7557148, -0.19909807, -0.9198755, -0.4489969, 
-0.12523727, -0.46023428, 0.16193815, 0.19031136, -0.35657433, -0.14306906, -0.7757057, -0.08220036, -0.7541894, -0.44606793, 
0.012594111, -0.66690874, 0.17518374, 0.03143338, -0.3055292, 0.04581659, -0.2731592, -0.16483948, -0.5093418, -0.3333122, 
0.06128959, -0.72267395, 0.1342303, -0.18444346, -0.18425223, 0.09585519, -0.16897105, -0.16498654, -0.27546847, -0.17078573, 
0.08777358, -0.7234273, 0.06174948, -0.15150805, 0.049068008, -0.30620942, 0.036620706, -0.12949397, 0.0059535857, -0.121774495, 
0.076111704, -0.29478994, 0.0057565877, -0.32466298, 0.116419405, -0.4383135, 0.20258513, -0.2558157, 0.084759146, 0.015923874, 
0.22032535, -0.16325736, 0.039639685, -0.46914726, 0.020817282, -0.3801472, 0.20801075, -0.23214819, 0.14736035, -0.015638318, 
0.33154467, -0.14417545, 0.18682608, -0.585763, -0.06550555, -0.3635754, 0.354699, -0.44585514, 0.04744339, 0.02159749, 
0.08959501, -0.17535919, 0.13696022, -0.4181004, -0.07544018, -0.3454887, 0.40654257, -0.28465813, 0.14665774, 0.059252415, 
-0.33377495, -0.018782282, 0.28478217, -0.3059832, -0.031833723, -0.43622756, 0.058864754, -0.19467893, 0.21067144, -0.11182751, 
-0.7310048, 0.31117338, 0.14720318, -0.26421908, 0.17288715, -0.4745246, 0.011515462, 0.014823934, 0.09694815, -0.14392135, 
-0.67461747, 0.3881961, 0.0081630545, -0.34204873, 0.30341107, -0.3590607, -0.04746335, 0.013755284, -0.07349436, -0.03753652, 
-0.44730482, -0.045797877, 0.0312278, -0.25920966, 0.34996116, -0.048670802, -0.17465246, 0.06405413, -0.09464202, 0.06283923, 
-0.17317055, -0.39423612, -0.04531586, -0.028569642, 0.27312362, -0.058854435, -0.13180135, -0.08331498, -0.036011916, 0.072366804, 
-0.0038186107, -0.55568814, -0.094857804, 0.0027350793, 0.15067469, 0.0053322758, -0.110922515, 0.005448096, -0.20883283, -0.011889128, 
-0.035131764, -0.5246065, 0.023681939, 0.031859234, -0.01592032, 0.11131734, 0.03152553, -0.008190371, -0.20860447, -0.12300963, 
-0.02599541, -0.4136965, -0.029226905, 0.14288251, -0.1293122, 0.007811023, 0.030624209, 0.029929275, -0.28120333, -0.1028233, 
0.026404439, -0.46989456, -0.10195017, 0.06192436, -0.046843942, 0.045695312, -0.104499444, 0.037223056, -0.17985862, -0.16504197, 
-0.005358435, -0.45895997, -8.31184E-4, 0.018985786, 0.006169356, -0.067422576, -0.022084922, -0.18184024, -0.26108447, -0.3336928, 
-0.030153569, -0.2860954, -0.0041031395, 0.16163848, -0.27358943, -0.12088796, -0.14275464, -0.26824772, -0.27127728, -0.3860422, 
-0.121932015, -0.4261539, 0.058857523, 0.14476049, -0.25991502, 0.041648924, -0.052217774, -0.36241016, -0.08980313, -0.8012452, 
-0.18879339, -0.49872592, 0.14302723, -0.3337108, -0.52976555, -0.12892123, -0.27067897, -0.31536928, -0.2201362, -1.1400551, 
-0.43300146, -0.5410246, 0.6241309, -0.99603814, -0.64352244, -0.7865685, -0.20689167, -0.409402, -0.9605601, -0.9743435, 
-0.44736537, -0.30388623, 0.5769884, -0.6101114, -0.21119802, -0.6133076, -0.55292594, -0.38056612, -0.7305813, -0.4805704, 
-0.06331419, -0.1511865, 0.12232166, -0.22205892, -0.106688954, -0.27572238, -0.27259043, -0.19459084, -0.1484279, -0.09565181, 
0.021074444, 0.03662039, -1.2016363E-4, -0.11900095, -0.0056214565, 0.022328217, 0.0438529, 0.08717953, -0.079078056, 0.08333556, 
-0.001820227, 0.018016461, -0.04335377, 0.10699193, 0.005901469, -0.057023205, -0.07716602, 0.06712075, -0.18078256, -0.13049325, 
-0.41740212, -0.17230405, -0.31162474, 0.36601287, -0.18495472, -0.5884869, -0.20167169, -0.14597197, -0.6168591, -0.32507047, 
-0.67212635, -0.6245246, 0.05613108, 0.5058406, -0.33739135, -0.27048498, -0.666412, -0.29688844, -1.0576785, -0.6370751, 
-0.1961275, -0.69702095, 0.22529392, 0.15447631, -0.37326932, 0.08992755, -0.6674194, -0.2861836, -0.66840404, -0.5513401, 
-0.166659, -1.0528892, 0.12629019, 0.07633621, -0.28365934, 0.10095442, -0.57550937, -0.28212258, -0.32652625, -0.49377152, 
-0.01694652, -1.0257496, 0.059051506, 0.03915494, -0.21686372, 0.31532177, -0.1934981, -0.46139458, -0.23745404, -0.23000813, 
-0.022570582, -0.5174802, 0.1650533, -0.220399, -0.14973706, 0.026794564, 0.0017343205, -0.45842102, -0.08852996, -0.2202523, 
0.1061906, -0.2231487, -0.019994048, -0.28606033, -0.044154663, -0.15444556, 0.077845745, -0.46497118, -0.005452187, -0.1379019, 
0.2640065, -0.075911924, 0.08873807, -0.3580943, -0.087426595, -0.18500414, 0.13506562, -0.3062682, 0.16285941, -0.054117586, 
0.19001648, -0.15777636, 0.14278646, -0.54240537, -0.33172914, -0.25768724, 0.25857887, -0.44998387, 0.1726728, 0.028687846, 
0.018833, -0.20986113, 0.08739129, -0.52241683, -0.20298763, -0.2905932, 0.2450043, -0.32572907, 0.13893792, 0.021897636, 
-0.35972604, -0.050497204, 0.25784057, -0.5523909, 0.05977883, -0.2780147, 0.29163876, -0.13385668, 0.1346571, -0.27155092, 
-0.57795787, 0.1947321, 0.1847232, -0.4638263, 0.21851759, -0.09995245, 0.10331078, 0.058253836, -0.13395344, -0.18773893, 
-0.4993416, 0.2292898, 0.05896209, -0.25739107, 0.14263526, -0.03679223, 0.039012697, -0.02570985, -0.16902333, -0.08471083, 
-0.2150731, -0.13881397, -0.027736902, -0.08605166, 0.24494353, -0.04980409, 1.6178808E-4, -0.03102149, -0.086525224, 0.06701499, 
-0.07894045, -0.43598685, 0.07537926, 0.1472606, 0.0839868, 0.05609571, 0.05947958, -0.10679503, -0.11394705, -0.11675025, 
-0.09542266, -0.31701672, 0.088149816, 0.18581508, -0.09397898, 0.047476675, 0.12265199, -0.06003764, -0.17860888, -0.028404092, 
-0.11008992, -0.20273127, 0.06026549, 0.16889177, -0.07410868, -0.045454208, 0.06823491, -0.039409306, -0.14138685, -0.10537302, 
-0.12248617, -0.09394556, -0.0876926, 0.08523538, -0.09865821, -0.0580098, -0.05896904, -0.18687999, -0.14744098, -0.16564885, 
-0.07994157, 0.07800783, -0.021833757, 0.073016405, -0.13862981, 0.050501112, -0.107486434, -0.09575663, -0.05589695, -0.034110487, 
-0.08558953, -0.06402546, -0.013511993, 0.151841, -0.19977976, -0.019378977, -0.08190628, -0.29211086, -0.23613147, -0.32234207, 
0.051970806, -0.32666004, 0.046700753, 0.10065407, -0.532526, 0.030059118, -0.11369232, -0.37871802, -0.14060645, -0.44875842, 
-0.19199671, -0.43400577, 0.18968809, -0.066151924, -0.4726899, 0.017621173, -0.11941525, -0.5744365, -0.17420097, -0.6145552, 
-0.17265406, -0.4783107, 0.33197796, -0.63300884, -0.47473225, 0.025127484, -0.27206495, -0.46906403, -0.2713753, -0.8443794, 
-0.46992737, -0.31322414, 0.5700012, -1.1622516, -0.62573344, -0.63583845, -0.21437451, -0.43664277, -0.9876207, -0.6486639, 
-0.47557896, -0.23900393, 0.44878426, -0.56069505, -0.0987404, -0.41934934, -0.5471823, -0.10772773, -0.69352293, -0.451953, 
-0.09648404, 0.017757053, 0.054404203, -0.18043298, -0.07333183, -0.18644693, -0.095220625, -0.048886314, -0.18405256, -0.057251826, 
-0.08265145, 0.06629788, -0.002208548, -0.016563307, -0.013279902, 0.02281256, -0.08924253, 0.045096625, 0.020633735, -0.0543474, 
-0.011198087, -0.008574237, -0.074173674, 0.010592018, -0.07928186, -0.0928352, 0.020572664, -0.028710809, -0.1396865, -0.17750934, 
-0.3394862, -0.24781214, -0.46202224, 0.24830358, -0.25978386, -0.37307525, -0.30107608, -0.08246663, -0.66794807, -0.40035057, 
-0.5813283, -0.43907082, -0.12615159, 0.36892593, -0.29972914, -0.21559504, -0.59538764, -0.30484617, -0.91866773, -0.6528702, 
-0.1391455, -0.75471026, 0.11212637, 0.15465267, -0.4116515, 0.038281646, -0.691559, -0.41587883, -0.4871091, -0.7279868, 
-0.07739599, -0.9061637, 0.08105931, 0.25019923, -0.21164049, 0.15247853, -0.49142507, -0.5089435, -0.066739805, -0.45976743, 
0.049468834, -0.5531108, 0.06050287, 0.07714703, -0.3569885, 0.20448133, -0.26225865, -0.5668331, -0.09368481, -0.23849273, 
0.009748326, -0.23349504, 0.22794022, -0.035873473, -0.31321108, 0.09949103, -0.19184157, -0.65508825, -0.107320026, -0.15386045, 
0.046547305, -0.10891889, 0.12831244, -0.033740085, -0.4562348, 0.12826252, -0.19414614, -0.3456537, -0.11426185, -0.1975301, 
0.07362734, -0.04791783, 0.15044788, -0.10844101, -0.38164705, -0.019494556, 0.13169578, -0.37717417, 0.10492736, -0.3168891, 
0.25290307, -0.120365664, 0.11391394, -0.17343554, -0.45625666, -0.04684066, 0.20135434, -0.3578599, 0.07759669, -0.2380387, 
0.21066216, -0.077321954, 0.19116943, -0.2963758, -0.35723707, 0.00303712, 0.3335425, -0.18811731, -0.13554569, -0.42984152, 
-0.010547514, 0.03852803, 0.109209955, -0.30124998, -0.25019893, -0.052388713, 0.38209528, -0.08742595, -0.081164815, -0.2960928, 
-0.19050597, 0.10019826, 0.16937448, -0.2652304, -0.19123761, -0.062737, 0.16681847, -0.067420766, -0.14770965, -0.23630641, 
-0.2655177, -0.07973218, 0.101106755, -0.06665178, 0.05443723, -0.008699014, 0.15141128, 0.06632719, -0.20525366, -0.072894126, 
-0.20583552, -0.18083917, 0.04236392, 0.055484977, 0.03967637, -0.058096852, 0.056936752, -0.1844436, -0.15501373, -0.1074642, 
-0.18221049, -0.01927122, 0.08493661, 0.15708531, -0.11110174, -0.06832866, 0.16751373, -0.27604398, -0.12345749, -0.16442356, 
0.004014744, -0.12129994, 0.13881196, 0.15021662, -0.08711875, 0.070065334, 0.09056767, -0.24560705, 0.020576354, -0.15434839, 
-0.053581174, 0.051096685, -0.0010162237, 0.20644705, -0.25245386, 0.019268619, 0.051065702, -0.3331659, -0.049057532, -0.19409408, 
-0.12269767, 0.11050964, -0.0313041, 0.10461478, -0.31625247, 0.010144635, -0.06856484, -0.25178036, 0.028026478, -0.081285276, 
-0.08673969, 0.111688346, 0.017593844, 0.09529098, -0.21160021, 0.07041, -0.0079819765, -0.39330804, -0.00981987, -0.13126737, 
-0.0107565615, -0.046726994, 0.116788395, 0.03804676, -0.19550215, -0.084986, -0.09030564, -0.548151, -0.1645751, -0.40896764, 
4.6346098E-4, -0.2727385, 0.0869552, -1.2854938E-4, -0.6921114, -0.0056946464, -0.12118839, -0.6728661, 0.04597405, -0.41165534, 
-0.19417149, -0.2795276, 0.123952, -0.05201668, -0.5443026, 0.018309841, -0.18872769, -0.86549014, 0.008529351, -0.473852, 
-0.14438803, -0.23324627, 0.22565411, -0.6895849, -0.7484193, 0.013256956, -0.20722938, -0.48800492, -0.36829224, -0.6704951, 
-0.5893834, -0.21913475, 0.54254454, -1.3496493, -0.55618894, -0.45557103, -0.46600088, -0.4365674, -1.0403826, -0.4002023, 
-0.35176152, -0.30327785, 0.40730986, -0.6041692, -0.240754, -0.43496147, -0.45393685, -0.21924566, -0.5141504, -0.20235524, 
-0.12870976, 0.14964667, 0.013169564, -0.1873213, -0.050817166, -0.069629, -0.07532464, -0.077333346, -0.14695726, -0.09634261, 
-0.035339728, 0.07778043, -0.038529884, 3.5983324E-4, 0.08033442, 0.07050338, 0.029622197, 0.020652674, 0.06027945, -0.056666456, 
-0.08858889, -0.056749426, -9.025782E-5, 0.10959294, -0.05227822, -0.12317494, -0.055629496, 0.0564133, -0.16563779, -0.061111666, 
-0.3238397, -0.2485985, -0.2601256, 0.14722858, -0.22938962, -0.5045931, -0.31547105, -0.30596706, -0.60489374, -0.46052283, 
-0.46390867, -0.5075803, -0.08957387, 0.32213157, -0.4030301, -0.185453, -0.8272333, -0.7479369, -0.8622094, -0.8022626, 
-0.17884663, -0.5890919, 0.057448074, 0.13225257, -0.5147496, -0.053270128, -0.6616606, -0.6559207, -0.3809851, -0.57369137, 
0.00223961, -0.42120114, -0.03748044, 0.06929988, -0.38716546, 0.0535441, -0.547082, -0.74206775, -0.11837189, -0.30889568, 
0.01910942, -0.14907268, 0.0777351, 0.23291509, -0.4500107, -0.016057558, -0.3564307, -0.9010673, -0.008810723, -0.35010448, 
-0.06935232, -0.07244113, 0.17289346, 0.06645218, -0.47513855, -0.04087033, -0.16185781, -0.5209064, 0.053158913, -0.38726914, 
-0.06598346, 0.009075399, 0.028354809, 0.036727846, -0.65327984, 0.072066754, -0.23929475, -0.3433778, -0.050431825, -0.46826226, 
0.12296875, -0.011615729, 0.1329435, 0.037042912, -0.4614205, 0.1308627, 0.02825486, -0.25063252, -0.11109245, -0.5484592, 
0.17962797, 0.15151992, 0.17272103, -0.08078108, -0.5044333, 0.035193406, 0.19367164, -0.20120925, -0.008227029, -0.44383958, 
0.33829924, -0.019684233, 0.20723504, -0.2516762, -0.32095265, 0.038961563, 0.21774492, -0.21243502, -0.22044662, -0.45260853, 
0.16546153, -0.10980173, 0.071259655, -0.2993155, -0.2840647, -0.04245975, 0.24317798, -0.04850151, -0.06090805, -0.45067456, 
0.123735376, -0.044646215, 0.07511323, -0.15611394, -0.22246091, 0.06290742, 0.29670525, 0.07058392, -0.08498892, -0.17294796, 
-0.0086954795, -0.05163372, 0.06287444, -0.04311984, -0.058938667, -0.096314736, 0.35074425, -7.1360014E-4, -0.1390092, -0.25138178, 
-0.014672223, -0.078908056, -8.4633473E-4, 0.0172542, -0.00266424, 0.014787481, 0.24105456, -0.08236329, -0.03061543, -0.202753, 
-0.04467043, 0.12811004, 0.012706135, 0.11958129, -0.03898553, 0.096872225, 0.07076605, -0.2966905, -0.111404866, -0.17308736, 
-0.13620919, 0.19189045, 0.023416076, 0.14850415, -0.003863058, 0.08689115, 0.049558647, -0.35109884, -0.105785355, -0.18073548, 
-0.19329044, 0.26400417, -0.023074247, 0.09316217, -0.14107418, -0.018068513, 0.0456033, -0.5014801, -0.054366156, -0.25690147, 
-0.18636712, 0.16104642, 0.11513637, 0.049605355, -0.25126284, -0.0068809516, 0.0036028572, -0.40935534, -0.06069746, -0.12403228, 
-0.15278809, 0.0055894, 0.17363124, 0.09955446, -0.33264762, -0.05749804, 0.009620103, -0.57155144, -0.014771385, -0.18611318, 
-0.14620723, -0.16558674, 0.061466776, -0.035566516, -0.33784482, 0.011122133, -0.1673791, -0.62497926, -0.00508697, -0.45425522, 
-0.048031766, -0.28563923, 0.026429033, -0.14047174, -0.49096373, 0.06348057, -0.2409329, -0.7782874, -0.06317962, -0.4892573, 
-0.25215784, -0.42429367, -0.0078790225, -0.1973209, -0.6130417, 0.09733493, -0.33339408, -0.7873199, 0.021574594, -0.33333835, 
-0.24221008, -0.20874119, 0.25481635, -0.68580943, -0.41671398, -0.053665835, -0.44653663, -0.55197245, -0.4418201, -0.1783934, 
-0.43468305, -0.21888594, 0.36888954, -1.2236911, -0.38566795, -0.38786674, -0.41105834, -0.34618944, -1.0157752, -0.19424775, 
-0.36491597, -0.2053726, 0.40473008, -0.39052552, -0.23956424, -0.26772445, -0.41739258, -0.1912324, -0.5028361, -0.18832873, 
-0.049798273, 0.034215856, -0.10658718, 0.0065638307, -0.030924005, 0.049607594, 0.019644635, 0.07019592, -0.118420266, -0.09690134, 
-0.0688988, 1.3004267E-4, -0.015917959, -0.05997499, 0.021572072, 0.03299467, -0.04930067, 0.046346307, 0.021394895, -0.054253682, 
-0.05855746, 0.0047967313, -0.01868329, 0.17806783, 0.020618422, -0.076936655, 0.0148586435, -0.035012636, -0.06681836, -0.1385625, 
-0.43696952, -0.26073822, -0.10473878, 0.25109652, -0.17102718, -0.6415762, -0.22095124, -0.4037074, -0.6052923, -0.41618782, 
-0.35101783, -0.41363353, -0.06564889, 0.2819155, -0.57270336, -0.2315308, -0.6458791, -0.60938966, -0.8514884, -0.576341, 
-0.16284187, -0.21104775, -0.09174468, 0.058187515, -0.62170637, 3.0657175E-4, -0.8523113, -0.63762236, -0.50030243, -0.61094165, 
-0.093985446, 0.08635795, -0.07735399, -0.009037046, -0.60621965, -0.041082885, -0.86298937, -0.5710063, -0.21516824, -0.36286712, 
-0.14526519, 0.13633181, -0.02480563, 0.039915837, -0.83091325, -0.0879785, -0.56366175, -0.46312764, -0.030677613, -0.4169542, 
-0.09030613, 0.042888507, 0.059580974, 0.08943973, -0.7011487, 0.053185266, -0.24726202, -0.34244898, 0.04734357, -0.3193375, 
-0.014949131, 0.03137856, -0.004263551, 0.058582127, -0.41330266, 0.056069165, -0.09144423, -0.23143129, -0.01054311, -0.22176003, 
-0.07122311, 0.039059725, 0.08597244, -0.15410821, -0.31258214, -0.032982167, -0.035059504, -0.23443301, -0.097839035, -0.22662567, 
0.16059995, 0.06642333, 0.08555803, -0.07174444, -0.25631565, 0.024615606, 0.06915049, -0.19592686, -0.05225196, -0.20586935, 
0.24525626, -0.10246842, 0.08227524, -0.14988853, -0.25333044, 0.05790863, 0.13420522, -0.10396231, -0.08332108, -0.36897215, 
0.17706285, -0.16814442, 0.017154709, -0.11116791, -0.2568671, 0.09662345, 0.39552516, -0.06649703, -0.09781465, -0.19995949, 
0.037610527, -0.20531183, -0.016795406, -0.067931674, -0.21164629, 0.04277739, 0.3459245, -0.061591387, 0.023256468, -0.23501894, 
-0.031651035, -0.08363576, -0.11247322, -0.03383753, -0.13315938, 0.055888705, 0.3588003, -0.11942929, -0.0072811535, -0.23859218, 
0.02485447, 0.08254952, -0.05538698, -0.015458358, -0.042714458, 0.06517821, 0.22792982, -0.13514501, -0.067830876, -0.20890261, 
-0.0648894, -0.011087111, -0.019756539, 0.08148425, -0.08175527, 0.013252669, 0.091197245, -0.19896786, -0.07886121, -0.08663789, 
-0.27424648, 0.14742877, 0.05745996, 7.9748733E-4, -0.12922488, 0.11150594, 0.12994954, -0.250429, -0.030360589, -0.29166943, 
-0.19879149, 0.18519035, 0.1866913, 0.19128157, -0.18787052, -0.06789617, 0.16829799, -0.46008438, -0.047550205, -0.3438913, 
-0.23807709, 0.10381728, 0.2325959, 0.112829514, -0.09107059, -0.012774296, -0.011831477, -0.48982114, -0.08897458, -0.28610033, 
-0.22369762, 0.022989528, -0.02414621, -0.05843127, -0.13290241, 0.04430894, -0.030115912, -0.6067932, -0.0038341982, -0.2504157, 
-0.1478541, 0.0031420032, -0.024943952, -0.20849435, -0.22950645, 0.060936037, -0.30801702, -0.70613253, 0.002890457, -0.2750422, 
-0.2048591, -0.43790454, 0.07060946, -0.3296672, -0.27293897, 0.075147636, -0.22668433, -0.7214792, -0.05410723, -0.3580038, 
-0.36094123, -0.33660066, 0.14907289, -0.4035835, -0.35669476, 0.012960022, -0.35861436, -0.8155718, -0.1720956, -0.23906615, 
-0.34357283, -0.30501774, 0.3639996, -1.0388136, -0.21958677, -0.14857322, -0.5052706, -0.48495722, -0.696075, -0.07210146, 
-0.53847307, -0.12885971, 0.40563786, -0.90138817, -0.1993364, -0.22885165, -0.35969532, -0.2494053, -0.6677288, -0.03291318, 
-0.04940504, -0.013938983, 0.12251402, -0.32284364, -0.15144907, -0.20259404, -0.2850792, -0.11996689, -0.36517802, -0.21427596, 
0.017937494, 0.06254759, -0.07080314, -0.05455382, -0.021786142, 0.024802022, -0.032593254, -0.06959544, -0.03526357, -0.0020559304, 
0.037646275, -0.032217104, -0.05961442, 0.001308481, 0.034933012, 0.04253775, -0.031814557, -0.047403734, 0.049270116, 0.041423444, 
0.073929235, 0.017661156, -0.09200987, 0.033965435, -0.06701177, 0.027601153, 0.043133777, 0.0012074271, -0.11961016, 0.047090754, 
-0.3379606, -0.19809571, -0.10527075, 0.32729426, -0.20829616, -0.63154244, -0.097229004, -0.27806538, -0.5352977, -0.47845966, 
-0.5627397, -0.39729938, 0.08313195, 0.2215731, -0.4958089, -0.21196246, -0.5399906, -0.6335599, -0.6820199, -0.6237261, 
-0.4767573, -0.05537944, 0.13833173, 0.016422717, -0.89578444, 0.0617249, -0.83432513, -0.3082522, -0.47689515, -0.75877017, 
-0.091984995, 0.4749075, -0.06501724, -0.024011107, -0.7692776, -0.18805203, -1.1605043, -0.17179957, -0.22152826, -0.60077435, 
-0.07113806, 0.18730061, 0.111097395, -0.0104679745, -0.73285055, -0.19819075, -0.96060294, -0.21185486, -0.11757983, -0.44415644, 
-0.06956082, -0.011965357, 0.09910159, 0.014521581, -0.565138, -0.22962064, -0.45107675, 0.040649675, -0.0076909065, -0.4001396, 
0.04732574, -0.008537153, 0.16462402, -0.1209426, -0.32796916, -0.051022176, -0.19539079, -0.052989706, -0.08960595, -0.10910164, 
0.021136656, -0.0153577095, 0.18095042, -0.05758742, -0.2975017, -0.020746427, -0.11582006, -0.14182955, -0.13025907, -0.09322069, 
0.025544371, -0.17143637, 0.10160812, -0.009535689, -0.16557035, -0.04642567, 0.13792998, -0.15727548, -0.01455831, 0.004531974, 
0.13594516, -0.2851005, 0.10008435, 0.03062018, -0.21304435, 0.08266991, 0.03554469, -0.14344718, 0.012533331, -0.1042044, 
0.16984984, -0.4853928, 0.0067989747, -0.06292128, -0.23868938, 0.05887265, 0.1294462, -0.12711993, 0.08903272, -0.070961215, 
0.24167073, -0.32190183, -0.004076535, -0.068140104, -0.18264012, 0.12506506, 0.20754533, -0.11506485, 0.16124034, -0.052874774, 
0.078275554, -0.14233659, -0.065585345, -0.14969914, -0.22241737, 0.14614028, 0.090270236, -0.11324249, 0.14773598, -0.06797056, 
0.119905725, 0.045640483, -0.109905906, 0.078447685, -0.1197271, 0.07043074, 0.21082635, -0.03259698, 0.06741094, -0.2175922, 
0.010196215, 0.055237528, 0.010124502, -0.02708159, -0.12284828, 0.0786874, 0.12865466, -0.09774708, -0.050037652, -0.16466105, 
-0.053531513, 0.25708526, -0.0029132154, 0.062172238, -0.07194556, 0.074456856, -0.046064455, -0.279913, -0.039067075, -0.2345223, 
-0.14569566, 0.17250712, 0.17525943, 0.020663442, -0.11591853, 0.022976233, -0.007741286, -0.36859825, -0.041666564, -0.23436497, 
-0.21873799, 0.027517488, 0.10087964, 0.059351403, 0.08324419, -0.0022676452, -0.14759268, -0.41834256, -0.0654846, -0.29235822, 
-0.07272957, 0.08849354, 0.14903334, -0.0066247154, 0.017734153, 0.015287639, -0.10141706, -0.4777754, -0.091746524, -0.25206354, 
-0.12050586, -0.09481541, 0.08334035, -0.23507555, 0.06497212, -0.011778958, -0.23291676, -0.638381, -0.14657044, -0.09167124, 
-0.29494026, -0.54364306, 0.12443717, -0.2722557, -0.14181492, -9.086743E-4, -0.5236983, -0.73389333, -0.043514095, -0.061478544, 
-0.39405802, -0.5683114, 0.17002098, -0.392223, -0.212219, 0.07628245, -0.5702213, -0.8482849, -0.24535656, 0.06786579, 
-0.27058282, -0.21919248, 0.21156946, -0.7518571, -0.20609875, -0.21985029, -0.5512788, -0.50600916, -0.4762873, -0.031760465, 
-0.37465858, -0.054581232, 0.26155502, -0.53375775, -0.1882031, -0.12610723, -0.40917656, -0.20940624, -0.41911787, -0.19397174, 
-0.015615271, 0.12022499, -5.864189E-4, -0.17923793, -0.13360901, -0.067872025, -0.14596774, -0.07230255, -0.33029002, -0.13408084, 
0.07236921, -0.038465418, -0.07444991, -0.03789447, 0.08022776, -0.08343765, -0.004820432, 0.050449878, -0.08668481, -0.019146504, 
-7.433817E-4, 0.028635994, 0.055127405, -0.045028783, 0.058475755, 0.078766964, -0.030892715, 0.07544858, 0.039517067, -0.03929138, 
0.0025716424, 0.044382192, -0.0023194104, -0.053260174, 0.085929416, 0.01635059, -0.065794036, 0.08597667, 0.08177725, 0.03496501, 
-0.31373373, -0.09849003, -0.2175234, 0.31682226, -0.19852138, -0.3886211, -0.09364791, -0.28818706, -0.41256025, -0.37325826, 
-0.6224431, -0.41120282, -0.2176631, 0.42290956, -0.5164541, -0.26894483, -0.34312436, -0.5438474, -0.5455819, -0.5234617, 
-0.5048638, -0.19272263, -0.19460317, 0.19756158, -0.98042434, -0.018406931, -0.7783556, 0.03117843, -0.6654519, -0.59051543, 
-0.1990286, 0.23853303, -0.21007767, 0.15314484, -0.98490256, -0.07330751, -1.2978443, 0.10505458, -0.58222824, -0.5399446, 
-0.19984284, 0.14846674, -0.14077653, 0.090652324, -0.38291165, -0.18366872, -1.5697235, 0.078006774, -0.48308328, -0.32635236, 
-0.07096558, -0.034522027, 0.024090588, 0.096357405, -0.15904959, -0.18659417, -1.1059071, 0.11261616, -0.2284425, -0.21158965, 
0.045310248, -0.076032706, -0.006385234, -0.05016734, -0.19485754, 0.019733151, -0.8348621, -0.20111243, -0.022348257, 0.005060751, 
0.12662552, -0.11955372, 0.019917762, 0.016711785, -0.1836201, -0.056382775, -0.6363946, -0.1562782, -0.13872841, -0.22143088, 
0.10664359, -0.24638775, -0.10511773, 0.09672456, -0.119423054, 0.06327489, -0.53926075, -0.11918649, -0.085584246, -0.14478748, 
0.30513626, -0.2213852, 0.039927326, 0.062098995, -0.091363564, 0.02984094, -0.4825928, -0.15249859, -0.018416943, -0.07557932, 
0.17958273, -0.18562438, 0.023924615, -0.1351241, -0.27403736, 0.13187599, -0.2941046, -0.25398844, 0.08439739, -0.16978644, 
0.14878373, -0.2375369, -0.16280954, 0.02951093, -0.2230759, -0.04495145, -0.17747939, -0.20957296, 0.20699196, -0.15175967, 
0.2284093, -0.2429181, -0.15646029, -0.059409235, -0.15714009, 0.08254907, -0.16781628, -0.11642321, 0.07074303, -0.09765013, 
0.09564705, -0.038383547, -0.113217026, -0.1074279, -0.16135722, 0.0073133055, -0.1666272, 0.017503468, 0.17751789, -0.18079148, 
-0.13327053, 0.08754408, -0.1119007, -0.07239967, -0.01653469, 0.0066374103, -0.27441627, -0.12559193, 0.07643805, -0.1671379, 
-0.007241846, 0.2628426, -0.04684969, -8.87824E-4, -0.014744185, -0.034261797, -0.24899249, -0.2485768, 0.06693193, -0.16541933, 
-0.2709625, 0.09368894, 0.13784371, 0.11482461, 0.14431283, -0.13250518, -0.34381592, -0.33828965, 0.04854599, -0.14949664, 
-0.31972378, -0.054398164, 0.26842108, 0.019459419, -0.0113442335, -0.05630213, -0.27438593, -0.4744977, -0.014712366, -0.17647628, 
-0.4586035, -0.06808482, 0.17143382, -0.14830242, 0.02976304, -0.0740771, -0.3121109, -0.6133552, -0.018471882, -0.038769234, 
-0.38558695, -0.35135284, 0.052444737, -0.34188607, 0.021722661, -0.11875038, -0.6501395, -0.58235246, -0.08835183, -0.04075035, 
-0.52766085, -0.37918684, 0.13867609, -0.38638446, -0.17439856, -0.072944164, -0.69499433, -0.7403596, -0.18849686, 0.07967024, 
-0.4609224, -0.35654157, 0.10587516, -0.5319672, -0.12096629, -0.07712316, -0.9275693, -0.7802325, -0.30259392, 0.119188294, 
-0.28306276, -0.26741743, 0.0145091135, -0.4289159, -0.1709909, -0.25239655, -0.4545298, -0.3071774, -0.5152806, 0.1259485, 
-0.10874091, -0.112762764, 0.17130214, -0.1825268, -0.073705085, -0.13135059, -0.37366706, -0.32839203, -0.40623987, -0.29289833, 
-0.15216991, 0.06447493, -0.12703447, -0.0654672, 0.0595804, -0.005475036, -0.18822475, -0.05739953, -0.24561547, -0.10969097, 
0.044081293, 0.063934185, -0.040733233, 0.084168665, 0.07036605, -0.026498303, 0.06667779, -0.026185598, -0.08373695, 0.054928787, 
0.08486801, -0.023277141, 0.0623535, -0.013611674, 0.057091646, -0.06958705, 0.031885676, 0.018312141, -0.039742038, -0.053428277, 
0.029284723, 0.045788504, 0.021695577, 0.049425565, -0.08044617, -0.038217943, -0.084426425, -0.018379077, -0.038556516, -0.008262999, 
-0.13000469, -0.07222847, -0.11588842, 0.12442323, -0.04346347, -0.27114818, -0.045478567, -0.19557612, -0.076792404, -0.16182512, 
-0.4744041, -0.2634154, -0.43260953, 0.30694208, -0.22371335, -0.37123406, -0.05707754, -0.07751821, -0.4618733, -0.55217505, 
-0.2885999, -0.39289623, -0.5889753, 0.22546762, -0.6579322, -0.19732895, -0.35543016, 0.16601007, -0.7659923, -0.3987226, 
-0.45614955, -0.08940238, -0.64609426, 0.17998692, -0.5135083, -0.29269904, -0.7372746, 0.25375158, -0.73748237, -0.28070024, 
-0.38225812, -0.059080377, -0.51235384, 0.27150777, -0.2752015, -0.21838044, -1.1786526, 0.30398348, -0.55130285, -0.18749267, 
-0.34196338, -0.22758622, -0.5122052, 0.28235742, -0.27817327, -0.09797438, -1.3324413, 0.13842367, -0.36259952, 0.07109267, 
-0.2457938, -0.31351236, -0.33530506, 0.13793404, -0.16528998, -0.12517013, -1.487593, 0.0672831, -0.16411981, -0.012603799, 
-0.15504016, -0.16206713, -0.291291, 0.13781874, -0.14108752, 0.1326887, -1.7093465, -0.062498458, -0.006746045, -0.16095619, 
-0.043935757, -0.2847468, -0.33942986, 0.21095188, -0.17309281, 0.07748821, -1.9822644, -0.07272342, 0.003754108, -0.09715014, 
-0.017989485, -0.36737868, -0.28001723, 0.19128746, -0.108758725, 0.12702401, -1.580894, 0.012115233, 0.06754852, -0.16815948, 
0.14909685, -0.29150695, -0.095756456, 0.13499947, -0.16759557, 0.10095372, -1.3064303, -0.10822934, 0.13099366, -0.26428187, 
0.022212526, -0.448804, -0.21510845, 0.17099233, -0.2526451, 0.13411252, -1.2077994, 0.019763818, 0.037831854, -0.3175053, 
-0.019972723, -0.38221994, 0.009292604, 0.09788561, -0.15625624, 0.13237219, -1.1703948, 0.0019704239, 0.08490431, -0.37356862, 
-0.07154818, -0.30276832, -0.20975736, -0.019496173, -0.13160132, 0.1336755, -0.874638, 0.031507842, 0.14108251, -0.1437744, 
-0.1944473, -0.51398414, -0.12441997, 0.09928135, -0.08413179, 0.060726784, -0.84982634, -0.055406395, 0.21430166, -0.066794224, 
-0.2535545, -0.29838505, -0.030665077, -0.057110805, -0.12412228, 0.036858596, -1.0445286, -0.102722615, -0.07718307, -0.10513502, 
-0.3281696, -0.18514027, -0.0119104115, -0.16467147, -0.1111631, -0.026248131, -1.2083129, -0.2837242, -0.0025215438, -0.045085024, 
-0.5506233, -0.3366885, -0.26118627, -0.35988462, 0.02699667, -0.13454805, -1.418681, -0.2667327, 0.21635996, 0.012462235, 
-0.700743, -0.25597504, -0.117153354, -0.40330434, -0.0377015, -0.0029324351, -1.4316387, -0.43963376, 0.07583936, 0.1307664, 
-0.741809, -0.26187915, -0.07787223, -0.4581975, -0.11908493, -0.12478349, -1.0790887, -0.396811, -0.23947524, 0.19419435, 
-0.63641906, -0.36853704, -0.10329813, -0.54993397, -0.104251914, -0.037301544, -0.8438208, -0.5806477, -0.2104014, 0.18904448, 
-0.6644852, -0.1983106, -0.15454257, -0.53695977, -0.11177327, -0.08422843, -0.6170132, -0.76314765, -0.34989443, 0.1485164, 
-0.30963662, -0.26453707, -0.032717347, -0.38458723, -0.34188133, -0.11862125, -0.51793915, -0.35578582, -0.4869986, 0.028204866, 
-0.053096194, -0.079002075, 0.15266061, -0.22345495, -0.049764056, -0.2918285, -0.10729639, -0.25385672, -0.2490148, -0.1962499, 
-0.033451162, -0.025044437, -0.037523016, -0.1240546, -0.07293594, -0.12559138, -0.0030101622, -0.053696916, -0.06717535, -0.1270588, 
-0.058931712, 0.06890903, 0.032291897, -0.08060731, 0.033070803, -0.026799258, 0.066055246, -0.050678626, 0.017440587, -0.042239815, 
-0.06965551, -0.0034621134, -0.051556185, 0.008213401, -0.02831214, 0.026127048, 0.07058998, 0.08495625, -0.03744853, -0.048517887, 
-0.0847497, -0.070612594, -0.0154171735, -0.00870955, 0.052668683, 0.026815236, 0.049931474, -0.016486324, 0.07777453, 0.0743138, 
-0.05102642, 0.07142053, -0.07546072, -0.0040853764, -0.06775996, 0.051675573, -0.07225683, -0.032726962, -0.07914618, 0.033945862, 
-0.09420728, -0.19159408, -0.10858233, -0.13453752, -0.04591809, -0.06304231, -0.0017144751, 0.13507594, -0.13617057, -0.2558583, 
-0.42637166, -0.369391, -0.4625453, -0.07095259, -0.41437367, -0.35583803, -0.17872848, 0.042124413, -0.64062154, -0.12337038, 
-0.7825727, -0.60662985, -0.8023155, -0.09615874, -0.5129224, -0.47548005, -0.44404897, 0.1543267, -0.7093683, 0.025402736, 
-0.7505727, -0.7539161, -0.91764075, 0.10853749, -0.61124074, -0.3236803, -0.7260833, -0.08848038, -0.7089967, 0.15446411, 
-0.7275706, -0.75404114, -1.1066916, 0.265924, -0.58050865, -0.22535345, -0.86471575, 0.17406034, -0.68869543, 0.086110964, 
-0.8628263, -0.7387824, -1.1856335, 0.3365171, -0.59575856, -0.20955667, -0.95600134, 0.1954803, -0.5662266, 0.073809475, 
-0.885413, -0.88678074, -1.3356956, 0.37726372, -0.5060245, -0.08847342, -1.2905399, 0.17519514, -0.47656342, -0.028923022, 
-0.96333176, -0.99111336, -1.2860184, 0.29974443, -0.32855257, -0.10592858, -1.7163249, 0.09780323, -0.26164803, 0.086459816, 
-0.8779064, -1.2292585, -1.1215172, 0.24477369, -0.51237625, 0.029987844, -1.5340186, 0.09446448, -0.36674416, -0.12516245, 
-1.0586712, -0.8415815, -1.1957784, 0.38289094, -0.61341983, 0.00817583, -1.636231, 0.14847088, -0.32946348, 0.06107345, 
-1.06581, -0.834854, -0.8280316, 0.28274855, -0.45406657, 0.12281928, -1.8326424, 0.049410507, -0.3268392, -0.040114418, 
-1.0463896, -0.68523633, -0.5970991, 0.007970439, -0.40655935, -0.0059787203, -1.985987, 0.041924015, -0.087490514, 0.08290829, 
-0.9254608, -0.93953776, -0.521925, -0.04225082, -0.45113996, 0.090394646, -1.6858838, 0.09826175, -0.10710717, -0.091311276, 
-1.0592653, -1.0993923, -0.5332663, -0.13788205, -0.53866786, -0.0011240554, -1.8660427, 0.004777924, -0.10863842, 0.018782366, 
-0.96188897, -1.1935767, -0.60438097, -0.257903, -0.5691853, 0.042598497, -1.8540273, 1.06620566E-4, -0.15469973, 0.056826882, 
-0.9064498, -1.1354549, -0.66990143, -0.2520727, -0.6455191, -0.07531372, -1.6275762, -0.0049755643, -0.21240614, 0.0569001, 
-0.9103623, -0.86411226, -0.5974911, -0.24357864, -0.5493291, -0.3094665, -1.4835439, -0.13084288, -0.28178605, 0.19215804, 
-0.6399007, -0.6124311, -0.68582064, -0.41879043, -0.6218063, -0.4316772, -1.0848894, -0.25144228, -0.5450954, 0.39269286, 
-0.46736485, -0.42218405, -0.52496207, -0.46862555, -0.55514437, -0.26621866, -0.7498743, -0.15770088, -0.8135214, 0.22624835, 
-0.4433665, -0.2576992, -0.5050726, -0.55909854, -0.42890972, 0.04505654, -0.58170426, -0.19020413, -0.7107058, 0.23543544, 
-0.3958596, -0.023619398, -0.4760133, -0.50981927, -0.12898196, 0.015696045, -0.3129771, -0.3776034, -0.5064125, 0.17303823, 
-0.27215105, 0.0198379, -0.18463741, -0.2304292, -0.20652191, -0.034695476, -0.13846079, -0.25289673, -0.33969498, 0.021530746, 
-0.016548635, -0.09623244, 0.06624689, -0.10068931, -0.062137734, 0.0074932184, -0.0133602135, -0.023824822, -0.081330806, -0.07394357, 
-0.040420845, 0.039092477, 0.05864517, -0.09320452, -0.1046922, 0.042903606, 0.032972913, -0.028942682, -0.010262578, 0.017675417, 
0.083981596, 0.03784453, 0.04505127, 0.043151982, 0.0549218, -0.017284818, -0.053820614, 0.045956455, 0.03728111, 0.05358722, 
-0.016872339, 0.05827401, -0.086047284, 0.011983372, 0.009598196, -0.06973849, -0.013891779, -0.0045486093, -0.014395386, 0.013387218, 
0.08213418, 0.044757985, 0.07888744, 0.07244087, 0.08111917, -0.038686194, -0.03350179, 0.059802704, 0.074895956, 0.052758984, 
0.026372604, -0.033685707, -0.013721019, -0.014434479, 0.059628554, -0.015593305, -0.031324696, -0.070182726, -0.008559287, 0.074213155, 
-0.025158383, -0.114966586, 0.04682445, -0.07941965, -0.11444318, 0.052100867, -0.07035168, 0.0050705597, -0.113391206, 0.014632313, 
-0.17350005, -0.24815905, -0.2980889, -0.21194714, -0.24280925, -0.27392232, -0.09816439, -0.023107532, -0.30482826, -0.010525283, 
-0.43192348, -0.35885286, -0.47844204, -0.40388328, -0.34414518, -0.5737721, -0.14307302, -0.07305436, -0.52438396, 0.13937551, 
-0.58710575, -0.51621544, -0.74771196, -0.5913835, -0.6471265, -0.61132926, -0.1841752, 0.04671503, -0.7514827, 0.29248357, 
-0.70155305, -0.5736967, -0.77886844, -0.6397758, -0.90986156, -0.64569366, -0.32519093, 0.09159901, -0.81765366, 0.24563283, 
-1.0098599, -0.8695285, -0.9140795, -0.7680903, -1.0757527, -0.6370309, -0.59109783, 0.08967044, -0.8768499, 0.1702264, 
-0.94160104, -1.0285714, -1.0863119, -0.96650183, -1.2650282, -0.74278724, -0.7450568, 0.12232145, -1.0817045, 0.22460456, 
-1.1318002, -0.6798212, -1.2621912, -0.7897466, -1.1909337, -0.44488525, -0.76666075, 0.10629061, -1.1093054, 0.19464612, 
-1.3180914, -0.8655074, -1.3986181, -0.89308536, -1.3626862, -0.36057764, -0.93217695, 0.08369752, -1.0870523, 0.13958211, 
-1.4789004, -0.8093408, -1.5228599, -0.8680348, -1.3359541, -0.46700293, -1.0606773, 0.008565866, -1.1831768, 0.2905163, 
-1.1124221, -0.90135235, -1.4144431, -0.7766079, -1.3909918, -0.45638138, -1.0436475, 0.20482577, -1.401105, 0.24230134, 
-0.92106295, -0.8329087, -1.5244569, -0.8602518, -1.5226353, -0.52505726, -1.0202245, 0.16968656, -1.3889445, 0.45552248, 
-1.0193295, -0.7740356, -1.1045102, -0.9370351, -1.4736655, -0.42967895, -1.1006441, 0.27360433, -1.8317525, 0.19081555, 
-0.90220004, -0.811176, -1.0795734, -0.70382136, -1.4332361, -0.5343093, -1.1993847, 0.21927492, -1.6618334, 0.1756066, 
-0.8210031, -0.9504496, -1.220694, -0.6549412, -1.3863729, -0.5331044, -1.0844798, 0.2008349, -1.5393753, 0.24129097, 
-0.78004867, -0.8008098, -1.077378, -0.7333132, -1.3063545, -0.6225749, -0.95410544, 0.30068162, -1.3338318, 0.19079737, 
-0.82191116, -0.623323, -1.0782995, -0.6562242, -1.1157165, -0.41026497, -0.72855425, 0.15191634, -1.014064, 0.12758936, 
-0.43247437, -0.3086935, -0.70583004, -0.405277, -1.1022258, -0.24855758, -0.43998814, -0.08506742, -0.93613136, 0.23506393, 
-0.3899781, -0.17926385, -0.57632464, -0.4427899, -0.84779394, -0.28172544, -0.44888225, -0.059333462, -0.5399426, 0.15436232, 
-0.24989815, -0.11217484, -0.3948065, -0.26522997, -0.42033836, -0.20992368, -0.20406483, 0.116097, -0.38613084, -0.03165409, 
-0.19093138, 0.025464453, -0.19718447, -0.1904202, -0.29716, -0.17361839, -0.086935245, -0.10478104, -0.21075036, -0.038934276, 
0.036551666, 0.07415409, -0.078642905, -0.019960582, 0.078084506, -0.10766662, -0.03012745, 0.007709321, -0.0574218, 0.028706875, 
0.019035611, 0.07301585, 0.013673773, -0.074628666, -0.027290057, 0.018180171, -0.08848374, 0.013353687, 0.025357386, -0.085691445, 
-0.059695803, 0.07206071, 0.06643147, -0.0054879487, 0.023505785, 0.07962061, -0.028595354, -0.038127124, -0.026034486, -0.01287546, 
-0.07033199, 0.013853066, 0.00394322, 0.037238292, -0.032469016, -0.014238305, -0.00908076, -0.05592952, 0.018654771, -0.081480876, 
0.059828945, 0.06342142, 0.03690575, -0.022904709, 0.0049246326, 0.0828973, 0.0016634688, 0.0010794252, -0.034186393, -0.06524889, 
0.021916702, -0.019253224, 0.04492443, 0.054545857, -0.01792407, 0.071035646, 0.08668368, -0.05952332, -0.05031178, 0.06165608, 
-0.0687017, -0.08428916, 0.049414642, -0.042441245, -0.0037596077, 0.035978347, 0.07576742, -0.08491348, -0.02706071, 0.06152641, 
0.07697084, -0.07794309, -0.07622366, -0.07897812, -0.02732749, -0.043108877, -0.014119223, -0.04601248, -0.016525455, -0.05262222, 
-0.09293548, 0.053275496, 0.07417442, -0.009393345, -0.025173772, -0.012097719, -0.06325026, 0.0355062, 0.03247461, -0.043501608, 
-0.032777075, -0.082878344, 0.042370625, 0.013343155, -0.03742087, 0.03816479, -0.058208626, 0.12872772, -0.13123508, -0.07753001, 
-0.13089612, -0.035762332, -0.020507947, -0.053105094, -0.12003612, -0.1668544, -0.035714496, 0.34080976, -0.168059, -0.24249843, 
-0.25727624, -0.12412799, -0.041450426, -0.18810488, -0.18990047, -0.19587651, -0.07594461, 0.47636008, -0.33404046, -0.47670692, 
-0.24634886, 0.012548476, -0.12716846, -0.31051093, -0.261828, -0.274763, -0.030466298, 0.32926115, -0.34714556, -0.3705629, 
-0.27823105, -0.099055305, -0.20583494, -0.3652005, -0.32662725, -0.47182348, -0.05386124, 0.36326024, -0.39880309, -0.4828824, 
-0.39425686, -0.22263592, -0.30326205, -0.6269766, -0.34269673, -0.46042275, -0.1117708, 0.44748285, -0.5821256, -0.38536575, 
-0.57189494, -0.3186087, -0.37916285, -0.7802038, -0.57385004, -0.44146693, -0.14956534, 0.39505303, -0.7601027, -0.46944258, 
-0.5420895, -0.2201708, -0.46383563, -0.8692616, -0.5979014, -0.5320346, -0.24674089, 0.42220527, -0.6816741, -0.53332907, 
-0.65356606, -0.31129676, -0.5502609, -0.97174716, -0.60301054, -0.6994426, -0.22020806, 0.8335632, -0.8933078, -0.6556765, 
-0.51665336, -0.33510503, -0.5024746, -0.8662265, -0.60661405, -0.7934083, -0.3629025, 0.5633033, -0.7954094, -0.23180646, 
-0.5526918, -0.20379665, -0.5656969, -0.95930713, -0.62350494, -0.7427904, -0.2756011, 0.50887394, -0.77561843, -0.27755582, 
-0.5513068, -0.17026551, -0.35961378, -0.88754046, -0.59251827, -0.8895193, -0.22492886, 0.7070191, -0.68994826, -0.60599023, 
-0.47668788, -0.21406998, -0.37008664, -0.76644135, -0.609549, -0.56251645, -0.23200032, 0.68189675, -0.64181465, -0.59410757, 
-0.2656064, -0.06571096, -0.27769896, -0.5684346, -0.4468662, -0.44468176, -0.18491521, 0.47651204, -0.450784, -0.36694983, 
-0.10461988, -0.11003791, -0.17008454, -0.3971926, -0.30122873, -0.33105174, -0.09214662, 0.34678292, -0.34143037, -0.108451374, 
-0.12575205, -0.058957826, -0.19616394, -0.30754673, -0.21546791, -0.19946498, -0.11342293, 0.038385954, -0.32403296, -0.07187642, 
-0.12738141, 0.033215035, -0.14661351, -0.2320991, -0.22836731, -0.12977275, -0.11217465, 0.02049705, -0.2223184, -0.097509384, 
-0.19297317, 0.0032658032, -0.025614386, -0.10737131, -0.12895253, -0.11492052, -0.16670053, 0.08988154, -0.13563164, -0.004688908, 
